{"learner":{"attributes":{"scikit_learn":"{\"_estimator_type\": \"classifier\"}"},"feature_names":[],"feature_types":[],"gradient_booster":{"model":{"gbtree_model_param":{"num_parallel_tree":"1","num_trees":"150"},"iteration_indptr":[0,1,2,3,4,5,6,7,8,9,10,11,12,13,14,15,16,17,18,19,20,21,22,23,24,25,26,27,28,29,30,31,32,33,34,35,36,37,38,39,40,41,42,43,44,45,46,47,48,49,50,51,52,53,54,55,56,57,58,59,60,61,62,63,64,65,66,67,68,69,70,71,72,73,74,75,76,77,78,79,80,81,82,83,84,85,86,87,88,89,90,91,92,93,94,95,96,97,98,99,100,101,102,103,104,105,106,107,108,109,110,111,112,113,114,115,116,117,118,119,120,121,122,123,124,125,126,127,128,129,130,131,132,133,134,135,136,137,138,139,140,141,142,143,144,145,146,147,148,149,150],"tree_info":[0,0,0,0,0,0,0,0,0,0,0,0,0,0,0,0,0,0,0,0,0,0,0,0,0,0,0,0,0,0,0,0,0,0,0,0,0,0,0,0,0,0,0,0,0,0,0,0,0,0,0,0,0,0,0,0,0,0,0,0,0,0,0,0,0,0,0,0,0,0,0,0,0,0,0,0,0,0,0,0,0,0,0,0,0,0,0,0,0,0,0,0,0,0,0,0,0,0,0,0,0,0,0,0,0,0,0,0,0,0,0,0,0,0,0,0,0,0,0,0,0,0,0,0,0,0,0,0,0,0,0,0,0,0,0,0,0,0,0,0,0,0,0,0,0,0,0,0,0,0],"trees":[{"base_weights":[-8.183917E-4,-1.41468E0,2.9177277E0,-1.4944146E0,-5.89303E-1,1.3954296E0,2.9545991E0,-1.4971001E0,-1.2814298E0,-1.0942076E0,1.7094427E0,-9.540191E-1,2.2617452E0,9.41931E-1,2.9637895E0,-4.4978493E-1,-1.3911803E0,-5.5490875E-1,-1.43418E0,1.6652298E0,-1.2814108E0,2.3550146E0,-1.4667622E0,2.3835704E0,-1.2809426E0,2.5333097E0,-4.2317796E-1,-1.2585334E0,2.1887417E0,2.9651544E0,-3.599992E-1,1.6961706E-1,-1.4887445E0,-4.36454E-1,6.4192796E-1,4.638651E-6,-1.4598014E0,2.8189456E0,-4.372231E-1,-1.4483193E0,6.329738E-1,2.8125792E0,1.5544625E-1,-1.285706E-1,-4.4390893E-1,7.7143127E-1,1.8947478E-1,-4.4375876E-1,4.936767E-1,-2.727225E-1,2.7040536E0,1.9565342E-1,-4.2879498E-1,2.6837163E0,-3.705874E-1,-3.3428493E-1,2.9661405E0,-4.2484388E-1,6.3206375E-1,-2.40844E-1,-4.4906533E-1,7.4571705E-1,-2.5714174E-1,4.0000165E-1,-3.2727197E-1,-2.2153737E-1,-4.423521E-1,8.868165E-1,-3.3428493E-1,-3.1003234E-1,-4.4741422E-1,-4.4328272E-1,6.828823E-1,8.658134E-1,-2.5081864E-1,-4.327651E-1,3.6459154E-1,-3.4053975E-1,4.764727E-1,5.5384827E-1,-3.4615293E-1,-2.4545366E-1,8.26273E-1,8.6388284E-1,-2.7391234E-1,-2.1951121E-1,8.901606E-1],"categories":[],"categories_nodes":[],"categories_segments":[],"categories_sizes":[],"default_left":[0,0,0,0,0,0,0,0,0,0,0,0,0,0,0,0,0,0,0,0,0,0,0,0,0,0,0,0,0,0,0,0,0,0,0,0,0,0,0,0,0,0,0,0,0,0,0,0,0,0,0,0,0,0,0,0,0,0,0,0,0,0,0,0,0,0,0,0,0,0,0,0,0,0,0,0,0,0,0,0,0,0,0,0,0,0,0],"id":0,"left_children":[1,3,5,7,9,11,13,15,17,19,21,23,25,27,29,-1,31,33,35,37,39,41,43,45,47,49,-1,51,53,55,-1,57,59,-1,61,63,65,67,-1,69,71,73,75,-1,-1,-1,-1,-1,77,79,81,-1,-1,83,-1,-1,85,-1,-1,-1,-1,-1,-1,-1,-1,-1,-1,-1,-1,-1,-1,-1,-1,-1,-1,-1,-1,-1,-1,-1,-1,-1,-1,-1,-1,-1,-1],"loss_changes":[1.7026403E5,1.8284258E3,7.516953E2,1.2582031E1,2.8458386E3,6.541514E2,2.4036719E2,3.6992188E0,3.5000122E1,1.0402766E3,9.090758E2,9.798188E1,2.3726831E2,1.7072133E2,7.79375E1,0E0,7.93186E1,6.3045334E1,9.770264E0,4.6564572E2,6.024431E2,3.6937463E2,3.7594604E-1,1.04562E0,2.8837036E1,1.0545007E2,0E0,8.364937E0,7.016585E1,5.59375E1,0E0,9.958202E1,1.5272217E0,0E0,7.245825E1,9.6969795E0,1.6821289E0,5.392633E1,0E0,2.939917E1,5.2939136E2,8.39292E1,1.1071115E2,0E0,0E0,0E0,0E0,0E0,1.74522E1,2.72308E1,3.8689697E1,0E0,0E0,2.7132874E1,0E0,0E0,5.3507812E1,0E0,0E0,0E0,0E0,0E0,0E0,0E0,0E0,0E0,0E0,0E0,0E0,0E0,0E0,0E0,0E0,0E0,0E0,0E0,0E0,0E0,0E0,0E0,0E0,0E0,0E0,0E0,0E0,0E0,0E0],"parents":[2147483647,0,0,1,1,2,2,3,3,4,4,5,5,6,6,7,7,8,8,9,9,10,10,11,11,12,12,13,13,14,14,16,16,17,17,18,18,19,19,20,20,21,21,22,22,23,23,24,24,25,25,27,27,28,28,29,29,31,31,32,32,34,34,35,35,36,36,37,37,39,39,40,40,41,41,42,42,48,48,49,49,50,50,53,53,56,56],"right_children":[2,4,6,8,10,12,14,16,18,20,22,24,26,28,30,-1,32,34,36,38,40,42,44,46,48,50,-1,52,54,56,-1,58,60,-1,62,64,66,68,-1,70,72,74,76,-1,-1,-1,-1,-1,78,80,82,-1,-1,84,-1,-1,86,-1,-1,-1,-1,-1,-1,-1,-1,-1,-1,-1,-1,-1,-1,-1,-1,-1,-1,-1,-1,-1,-1,-1,-1,-1,-1,-1,-1,-1,-1],"split_conditions":[1.7803222E-2,4.5746957E2,8.778624E-2,2.7838198E-3,4.626523E-4,3.0520703E2,5.0013084E0,4.3420087E2,1.0511216E0,7.758712E-1,3.7875009E0,1.2931259E-1,4.72292E0,3.4808886E-1,2.8196804E3,-4.4978493E-1,1.0810077E0,3.077182E2,6.740713E-1,7.737535E-1,5.3969544E-1,1.9945387E0,3.8484097E0,2.0669978E0,2.8518808E0,6.588504E1,-4.2317796E-1,2.2037311E-1,5.236764E-1,3E0,-3.599992E-1,6.1981613E1,1.0916369E0,-4.36454E-1,3.124004E2,1.15275E0,1.0282575E0,4.6016037E-2,-4.372231E-1,7.737535E-1,1.28058195E1,5.052848E2,1.4224119E1,-1.285706E-1,-4.4390893E-1,7.7143127E-1,1.8947478E-1,-4.4375876E-1,1.8028114E1,9.220608E-2,1.2861055E-1,1.9565342E-1,-4.2879498E-1,9.942289E0,-3.705874E-1,-3.3428493E-1,1.8008034E-1,-4.2484388E-1,6.3206375E-1,-2.40844E-1,-4.4906533E-1,7.4571705E-1,-2.5714174E-1,4.0000165E-1,-3.2727197E-1,-2.2153737E-1,-4.423521E-1,8.868165E-1,-3.3428493E-1,-3.1003234E-1,-4.4741422E-1,-4.4328272E-1,6.828823E-1,8.658134E-1,-2.5081864E-1,-4.327651E-1,3.6459154E-1,-3.4053975E-1,4.764727E-1,5.5384827E-1,-3.4615293E-1,-2.4545366E-1,8.26273E-1,8.6388284E-1,-2.7391234E-1,-2.1951121E-1,8.901606E-1],"split_indices":[16,4,16,16,16,4,13,4,0,2,0,12,0,7,2,0,9,4,2,0,8,1,0,3,9,15,0,12,12,14,0,2,9,0,4,9,9,1,0,0,13,4,2,0,0,0,0,0,0,1,8,0,0,10,0,0,7,0,0,0,0,0,0,0,0,0,0,0,0,0,0,0,0,0,0,0,0,0,0,0,0,0,0,0,0,0,0],"split_type":[0,0,0,0,0,0,0,0,0,0,0,0,0,0,0,0,0,0,0,0,0,0,0,0,0,0,0,0,0,0,0,0,0,0,0,0,0,0,0,0,0,0,0,0,0,0,0,0,0,0,0,0,0,0,0,0,0,0,0,0,0,0,0,0,0,0,0,0,0,0,0,0,0,0,0,0,0,0,0,0,0,0,0,0,0,0,0],"sum_hessian":[4.1259926E4,2.7795283E4,1.3464643E4,2.5345955E4,2.4493289E3,3.1933276E2,1.314531E4,2.5024398E4,3.2155496E2,2.0086631E3,4.4066586E2,8.599985E1,2.3333292E2,6.0222115E1,1.3085088E4,2.4506178E4,5.182213E2,5.6666565E1,2.648884E2,1.27110886E2,1.8815521E3,3.664438E2,7.422209E1,7.1110983E0,7.888875E1,2.1755516E2,1.5777749E1,2.1777739E1,3.8444374E1,1.3081088E4,3.9999928E0,3.044439E1,4.877769E2,3.2222164E1,2.44444E1,4.6666584E0,2.6022174E2,9.288872E1,3.422216E1,1.7308857E3,1.506664E2,3.0311057E2,6.3333218E1,1.3333309E0,7.2888756E1,5.999989E0,1.1111091E0,7.1110985E1,7.777764E0,1.2444422E1,2.0511075E2,1.5555527E0,2.0222185E1,3.3777718E1,4.6666584E0,2.8888836E0,1.3078198E4,1.6888859E1,1.35555315E1,6.8888764E0,4.8088803E2,1.0666647E1,1.3777753E1,1.9999964E0,2.6666617E0,6.222211E0,2.5399954E2,8.999984E1,2.8888836E0,1.6511081E2,1.5657749E3,6.599988E1,8.466651E1,2.973328E2,5.777767E0,2.5111065E1,3.8222153E1,3.1111054E0,4.6666584E0,3.3333273E0,9.111094E0,2.6666617E0,2.0244408E2,3.2222164E1,1.5555527E0,3.5555491E0,1.3074644E4],"tree_param":{"num_deleted":"0","num_feature":"17","num_nodes":"87","size_leaf_vector":"1"}},{"base_weights":[-5.433129E-2,-1.2361495E0,1.7648209E0,-1.3115289E0,-4.9355638E-1,1.0180794E0,1.7905405E0,-1.3147801E0,-1.0632178E0,-9.440315E-1,1.0558571E0,-8.2370067E-1,1.4562074E0,6.6967165E-1,1.7942572E0,-3.9537823E-1,-1.177829E0,-2.5742462E-1,-1.2501965E0,1.042883E0,-1.1042851E0,1.5156951E0,-8.69439E-1,1.5563622E0,-1.1698847E0,1.5709646E0,-3.9850768E-1,1.438334E0,-1.1424736E0,1.7948813E0,-3.0025285E-1,-1.2958426E0,1.4909962E-1,-3.8215962E-1,7.425313E-1,6.2478688E-3,-1.2767228E0,1.7054881E0,-3.8276154E-1,-1.2827995E0,4.7779757E-1,1.6945382E0,-3.880541E-1,-1.2275102E0,5.554016E-1,5.3625065E-1,-1.2968692E-1,-1.4105369E0,4.6168962E-1,-9.959912E-2,1.6555842E0,-5.5303764E-1,1.7218599E0,-3.7595978E-1,6.429574E-2,7.8838475E-2,1.7956978E0,-3.9525715E-1,-2.2030205E-1,4.9232703E-1,-3.9131358E-1,4.9684483E-1,-2.9383495E-1,4.4336185E-1,-3.040499E-1,-3.9222333E-1,-8.364319E-2,5.381799E-1,-2.977929E-1,-2.5478297E-1,-3.9668152E-1,4.798002E-1,-4.3655694E-1,5.2885944E-1,-4.532062E-1,3.541193E-1,-3.997825E-1,-3.6873284E-1,4.8518667E-1,-3.9061114E-1,-5.3627133E-1,4.0071055E-1,-3.7015504E-1,4.1742098E-1,-3.6454684E-1,-3.7204707E-1,5.036744E-1,-3.1076154E-1,1.985951E-1,5.3450745E-1,1.2664246E-2,-4.977832E-1,4.3623492E-1,5.3883284E-1,-3.1213164E-1],"categories":[],"categories_nodes":[],"categories_segments":[],"categories_sizes":[],"default_left":[0,0,0,0,0,0,0,0,0,0,0,0,0,0,0,0,0,0,0,0,0,0,0,0,0,0,0,0,0,0,0,0,0,0,0,0,0,0,0,0,0,0,0,0,0,0,0,0,0,0,0,0,0,0,0,0,0,0,0,0,0,0,0,0,0,0,0,0,0,0,0,0,0,0,0,0,0,0,0,0,0,0,0,0,0,0,0,0,0,0,0,0,0,0,0],"id":1,"left_children":[1,3,5,7,9,11,13,15,17,19,21,23,25,27,29,-1,31,33,35,37,39,41,43,45,47,49,-1,51,53,55,-1,57,59,-1,61,63,65,67,-1,69,71,73,-1,75,77,-1,-1,79,81,83,85,87,89,-1,-1,91,93,-1,-1,-1,-1,-1,-1,-1,-1,-1,-1,-1,-1,-1,-1,-1,-1,-1,-1,-1,-1,-1,-1,-1,-1,-1,-1,-1,-1,-1,-1,-1,-1,-1,-1,-1,-1,-1,-1],"loss_changes":[8.2077336E4,1.2947852E3,2.869336E2,1.55625E1,1.4906616E3,4.070099E2,5.9335938E1,7.3828125E0,4.1375763E1,5.2782043E2,4.2735162E2,8.197462E1,1.3202252E2,7.0768196E1,2.7070312E1,0E0,7.460205E1,5.5204487E1,7.4859924E0,1.9263765E2,4.3303137E2,1.9753156E2,4.833956E1,6.6480865E0,3.422178E1,5.5435486E1,0E0,2.0876015E1,2.5727978E0,2.0148438E1,0E0,4.3459473E0,8.824452E1,0E0,4.495153E1,9.952941E0,6.3647766E0,2.4890564E1,0E0,2.2425293E1,3.404629E2,8.281079E1,0E0,2.0543503E1,3.884214E1,0E0,0E0,7.306366E-1,1.9050695E1,3.461273E1,2.7226868E1,3.7098799E0,3.0535126E0,0E0,0E0,2.1374603E1,1.8761719E1,0E0,0E0,0E0,0E0,0E0,0E0,0E0,0E0,0E0,0E0,0E0,0E0,0E0,0E0,0E0,0E0,0E0,0E0,0E0,0E0,0E0,0E0,0E0,0E0,0E0,0E0,0E0,0E0,0E0,0E0,0E0,0E0,0E0,0E0,0E0,0E0,0E0,0E0],"parents":[2147483647,0,0,1,1,2,2,3,3,4,4,5,5,6,6,7,7,8,8,9,9,10,10,11,11,12,12,13,13,14,14,16,16,17,17,18,18,19,19,20,20,21,21,22,22,23,23,24,24,25,25,27,27,28,28,29,29,31,31,32,32,34,34,35,35,36,36,37,37,39,39,40,40,41,41,43,43,44,44,47,47,48,48,49,49,50,50,51,51,52,52,55,55,56,56],"right_children":[2,4,6,8,10,12,14,16,18,20,22,24,26,28,30,-1,32,34,36,38,40,42,44,46,48,50,-1,52,54,56,-1,58,60,-1,62,64,66,68,-1,70,72,74,-1,76,78,-1,-1,80,82,84,86,88,90,-1,-1,92,94,-1,-1,-1,-1,-1,-1,-1,-1,-1,-1,-1,-1,-1,-1,-1,-1,-1,-1,-1,-1,-1,-1,-1,-1,-1,-1,-1,-1,-1,-1,-1,-1,-1,-1,-1,-1,-1,-1],"split_conditions":[1.7803222E-2,4.5980652E2,1.3900901E-1,2.7838198E-3,4.1755114E-4,3.0261584E2,5.0013084E0,4.3420087E2,1.0511216E0,7.758712E-1,4.9407727E2,1.7618085E-1,4.9505596E0,4.9610877E-1,2.8196804E3,-3.9537823E-1,5.2454334E-1,3.077182E2,6.740713E-1,7.737535E-1,5.2454334E-1,3.5057633E0,3.4101936E-1,2.199662E0,2.6844759E1,6.467831E1,-3.9850768E-1,2.073662E-1,3.5321245E-1,1.8042208E-1,-3.0025285E-1,5.649056E-4,6.571765E-1,-3.8215962E-1,2.0971227E0,1.15275E0,5.106582E-1,4.6016037E-2,-3.8276154E-1,4.6724084E2,1.143415E0,1.9708086E0,-3.880541E-1,3.6523739E-1,3.2839092E1,5.3625065E-1,-1.2968692E-1,8.778624E-2,6.352451E-1,2.4284372E-1,4.5429316E0,3.8952173E2,1.2270821E0,-3.7595978E-1,6.429574E-2,4.5746957E2,3.868423E0,-3.9525715E-1,-2.2030205E-1,4.9232703E-1,-3.9131358E-1,4.9684483E-1,-2.9383495E-1,4.4336185E-1,-3.040499E-1,-3.9222333E-1,-8.364319E-2,5.381799E-1,-2.977929E-1,-2.5478297E-1,-3.9668152E-1,4.798002E-1,-4.3655694E-1,5.2885944E-1,-4.532062E-1,3.541193E-1,-3.997825E-1,-3.6873284E-1,4.8518667E-1,-3.9061114E-1,-5.3627133E-1,4.0071055E-1,-3.7015504E-1,4.1742098E-1,-3.6454684E-1,-3.7204707E-1,5.036744E-1,-3.1076154E-1,1.985951E-1,5.3450745E-1,1.2664246E-2,-4.977832E-1,4.3623492E-1,5.3883284E-1,-3.1213164E-1],"split_indices":[16,4,16,16,16,4,13,4,0,2,4,12,0,12,2,0,8,4,2,0,8,0,8,3,0,15,0,8,8,0,0,16,7,0,1,9,8,1,0,4,9,5,0,6,2,0,0,16,12,1,13,4,0,0,0,4,9,0,0,0,0,0,0,0,0,0,0,0,0,0,0,0,0,0,0,0,0,0,0,0,0,0,0,0,0,0,0,0,0,0,0,0,0,0,0],"split_type":[0,0,0,0,0,0,0,0,0,0,0,0,0,0,0,0,0,0,0,0,0,0,0,0,0,0,0,0,0,0,0,0,0,0,0,0,0,0,0,0,0,0,0,0,0,0,0,0,0,0,0,0,0,0,0,0,0,0,0,0,0,0,0,0,0,0,0,0,0,0,0,0,0,0,0,0,0,0,0,0,0,0,0,0,0,0,0,0,0,0,0,0,0,0,0],"sum_hessian":[3.817514E4,2.3141506E4,1.5033634E4,2.1008229E4,2.1332756E3,5.019033E2,1.453173E4,2.0732475E4,2.7575488E2,1.6530579E3,4.8021783E2,9.628121E1,4.056221E2,4.862564E1,1.4483105E4,2.0258309E4,4.7416534E2,5.238334E1,2.2337154E2,1.2296469E2,1.5300931E3,3.8780676E2,9.241109E1,1.1782072E1,8.449914E1,3.8998587E2,1.5636208E1,3.428792E1,1.4337717E1,1.44802295E4,2.8760378E0,4.3546005E2,3.870529E1,2.5841703E1,2.6541637E1,4.634169E0,2.1873737E2,9.584158E1,2.7123112E1,1.3751205E3,1.5497266E2,3.6496848E2,2.2838272E1,7.396238E1,1.8448704E1,1.0645859E1,1.1362132E0,7.375585E1,1.0743287E1,1.8793179E1,3.7119272E2,4.154914E0,3.0133009E1,1.3326513E1,1.0112036E0,6.9325156E0,1.4473297E4,4.1797455E2,1.7485487E1,1.9035913E1,1.9669378E1,1.7366081E1,9.175556E0,1.7129343E0,2.921235E0,2.1191046E2,6.826901E0,9.31241E1,2.717486E0,1.16634766E2,1.2584857E3,9.818023E1,5.679243E1,3.5779138E2,7.1771026E0,2.665339E0,7.129704E1,6.8237886E0,1.1624914E1,6.0732224E1,1.3023631E1,7.2290845E0,3.5142026E0,7.937289E0,1.0855889E1,2.5498595E0,3.6864285E2,3.0788593E0,1.0760543E0,2.9037882E1,1.0951273E0,2.9710782E0,3.9614375E0,1.4471563E4,1.7331289E0],"tree_param":{"num_deleted":"0","num_feature":"17","num_nodes":"95","size_leaf_vector":"1"}},{"base_weights":[-6.484243E-2,-1.1340352E0,1.4252534E0,-1.2083976E0,-4.4920507E-1,8.256605E-1,1.4462508E0,-1.2112908E0,-9.8661417E-1,7.188386E-1,-8.9892936E-1,-6.869555E-1,1.158405E0,4.8416114E-1,1.4491644E0,-3.638858E-1,-1.0589564E0,-1.1714132E0,-6.02015E-1,1.3733121E0,-3.8743952E-1,3.3423984E-1,-1.1251096E0,1.1702588E0,-9.8083425E-1,1.2388341E0,-3.6518124E-1,-8.6977166E-1,1.353116E0,1.4522281E0,7.004854E-1,-3.6359507E-1,4.530781E-1,-1.204861E0,-3.4826654E-1,8.40803E-1,-9.0012294E-1,1.5332501E0,-3.6773494E-1,-6.788752E-1,1.3365211E0,-1.2113806E0,6.9893116E-1,-1.5141186E-1,4.2048302E-1,-3.850131E-1,4.812806E-1,-1.643899E-1,1.3121917E0,-1.1009331E0,3.571082E-1,4.3027362E-1,-3.8207006E-2,5.6795293E-1,1.4544855E0,1.2013967E0,-6.6150063E-1,4.4783685E-1,-3.2419875E-1,-3.7091028E-2,-3.6357254E-1,4.9351475E-1,-3.0411404E-1,4.271653E-1,-2.8907582E-1,-3.0892003E-2,-3.6764494E-1,-2.9435828E-1,4.679799E-1,-3.72221E-1,3.6400434E-1,4.7757933E-1,-3.3381984E-1,-8.5585065E-2,-3.648563E-1,-2.0890388E-1,3.6054236E-1,-3.3110467E-1,3.2425302E-1,3.534599E-1,-3.733378E-1,-4.6702203E-1,3.9910147E-1,-3.5170382E-1,-4.836895E-2,-3.9088387E-2,1.938989E-1,-7.007601E-1,4.2719913E-1,-2.7699736E-1,4.364356E-1,4.135886E-1,-5.485249E-1],"categories":[],"categories_nodes":[],"categories_segments":[],"categories_sizes":[],"default_left":[0,0,0,0,0,0,0,0,0,0,0,0,0,0,0,0,0,0,0,0,0,0,0,0,0,0,0,0,0,0,0,0,0,0,0,0,0,0,0,0,0,0,0,0,0,0,0,0,0,0,0,0,0,0,0,0,0,0,0,0,0,0,0,0,0,0,0,0,0,0,0,0,0,0,0,0,0,0,0,0,0,0,0,0,0,0,0,0,0,0,0,0,0],"id":2,"left_children":[1,3,5,7,9,11,13,15,17,19,21,23,25,27,29,-1,31,33,35,37,-1,39,41,43,45,47,-1,49,51,53,55,-1,57,59,61,63,65,67,-1,69,71,73,75,-1,-1,-1,77,79,81,83,85,-1,-1,87,89,91,-1,-1,-1,-1,-1,-1,-1,-1,-1,-1,-1,-1,-1,-1,-1,-1,-1,-1,-1,-1,-1,-1,-1,-1,-1,-1,-1,-1,-1,-1,-1,-1,-1,-1,-1,-1,-1],"loss_changes":[5.04497E4,9.383574E2,1.6535742E2,9.474609E0,9.500969E2,2.272504E2,3.5123047E1,2.8710938E0,1.4898392E1,6.635801E2,3.6448816E2,4.5769814E1,7.204669E1,4.8341286E1,2.8203125E1,0E0,4.334877E1,3.6340637E0,3.228853E1,1.5982452E2,0E0,2.0713797E2,1.7447131E2,5.2122736E0,3.2082405E1,3.7023743E1,0E0,5.010229E0,3.1624222E0,2.4503906E1,8.103109E1,0E0,2.9882893E1,9.2515564E-1,1.1159125E1,1.5123337E1,1.5756939E1,2.557483E1,0E0,1.09593475E2,6.584885E1,4.3444824E0,3.6243656E1,0E0,0E0,0E0,1.3472754E1,2.8515274E1,1.97677E1,7.467003E-1,5.544971E-1,0E0,0E0,8.771823E1,1.0363281E1,2.7535385E1,0E0,0E0,0E0,0E0,0E0,0E0,0E0,0E0,0E0,0E0,0E0,0E0,0E0,0E0,0E0,0E0,0E0,0E0,0E0,0E0,0E0,0E0,0E0,0E0,0E0,0E0,0E0,0E0,0E0,0E0,0E0,0E0,0E0,0E0,0E0,0E0,0E0],"parents":[2147483647,0,0,1,1,2,2,3,3,4,4,5,5,6,6,7,7,8,8,9,9,10,10,11,11,12,12,13,13,14,14,16,16,17,17,18,18,19,19,21,21,22,22,23,23,24,24,25,25,27,27,28,28,29,29,30,30,32,32,33,33,34,34,35,35,36,36,37,37,39,39,40,40,41,41,42,42,46,46,47,47,48,48,49,49,50,50,53,53,54,54,55,55],"right_children":[2,4,6,8,10,12,14,16,18,20,22,24,26,28,30,-1,32,34,36,38,-1,40,42,44,46,48,-1,50,52,54,56,-1,58,60,62,64,66,68,-1,70,72,74,76,-1,-1,-1,78,80,82,84,86,-1,-1,88,90,92,-1,-1,-1,-1,-1,-1,-1,-1,-1,-1,-1,-1,-1,-1,-1,-1,-1,-1,-1,-1,-1,-1,-1,-1,-1,-1,-1,-1,-1,-1,-1,-1,-1,-1,-1,-1,-1],"split_conditions":[1.7803222E-2,4.5746957E2,1.3900901E-1,2.7838198E-3,8.4086263E-1,3.0261584E2,4.931904E0,4.4431256E2,3.077182E2,2.9310977E0,1.1557267E0,1.7618085E-1,4.9505596E0,9.389364E-1,1.5235096E1,-3.638858E-1,5.3969544E-1,2.949276E0,3.124004E2,4.9407727E2,-3.8743952E-1,1.2077902E1,4.1361083E-3,5.841207E0,2.8043096E0,6.5006386E1,-3.6518124E-1,4.1475388E-1,2.5683453E0,3.0289366E1,2.0446349E2,-3.6359507E-1,6.415122E-1,1.2931259E-1,2.9333895E-1,1.0511216E0,1.3004215E0,6.618934E1,-3.6773494E-1,2.052581E-3,1.1765139E0,8.6141074E-1,1.7516285E-1,-1.5141186E-1,4.2048302E-1,-3.850131E-1,8.4131366E-1,1.1241913E0,3.953366E-1,4.856084E0,2.199662E0,4.3027362E-1,-3.8207006E-2,1.0442395E0,1.7676483E-1,3.1890006E0,-6.6150063E-1,4.4783685E-1,-3.2419875E-1,-3.7091028E-2,-3.6357254E-1,4.9351475E-1,-3.0411404E-1,4.271653E-1,-2.8907582E-1,-3.0892003E-2,-3.6764494E-1,-2.9435828E-1,4.679799E-1,-3.72221E-1,3.6400434E-1,4.7757933E-1,-3.3381984E-1,-8.5585065E-2,-3.648563E-1,-2.0890388E-1,3.6054236E-1,-3.3110467E-1,3.2425302E-1,3.534599E-1,-3.733378E-1,-4.6702203E-1,3.9910147E-1,-3.5170382E-1,-4.836895E-2,-3.9088387E-2,1.938989E-1,-7.007601E-1,4.2719913E-1,-2.7699736E-1,4.364356E-1,4.135886E-1,-5.485249E-1],"split_indices":[16,4,16,16,0,4,13,4,4,1,9,12,0,16,0,0,8,9,4,4,0,13,16,13,9,15,0,7,3,15,4,0,7,12,7,0,9,15,0,16,6,0,8,0,0,0,6,9,10,13,3,0,0,7,7,2,0,0,0,0,0,0,0,0,0,0,0,0,0,0,0,0,0,0,0,0,0,0,0,0,0,0,0,0,0,0,0,0,0,0,0,0,0],"split_type":[0,0,0,0,0,0,0,0,0,0,0,0,0,0,0,0,0,0,0,0,0,0,0,0,0,0,0,0,0,0,0,0,0,0,0,0,0,0,0,0,0,0,0,0,0,0,0,0,0,0,0,0,0,0,0,0,0,0,0,0,0,0,0,0,0,0,0,0,0,0,0,0,0,0,0,0,0,0,0,0,0,0,0,0,0,0,0,0,0,0,0,0,0],"sum_hessian":[3.1663635E4,1.8435672E4,1.3227962E4,1.6629219E4,1.8064534E3,4.4892657E2,1.2779035E4,1.6410678E4,2.1854158E2,5.0201074E2,1.3044427E3,8.075584E1,3.6817075E2,3.90885E1,1.2739947E4,1.6226703E4,1.8397366E2,1.4623174E2,7.2309845E1,3.789551E2,1.2305561E2,2.0209763E2,1.1023451E3,1.0625315E1,7.013052E1,3.5657727E2,1.1593482E1,1.5279821E1,2.380868E1,1.2687091E4,5.28563E1,1.672458E2,1.6727861E1,1.4007613E2,6.155601E0,1.2070269E1,6.0239574E1,3.5737384E2,2.158128E1,1.0066609E2,1.0143153E2,1.052883E3,4.9461987E1,1.1460979E0,9.479217E0,5.820824E1,1.1922279E1,1.7653364E1,3.389239E2,1.2943702E1,2.3361192E0,2.2601358E1,1.2073213E0,3.294965E1,1.2654142E4,4.5584038E1,7.272263E0,9.985479E0,6.742382E0,1.0271893E0,1.3904893E2,1.1722084E0,4.9833927E0,9.281776E0,2.7884922E0,1.7842062E1,4.2397514E1,3.37694E0,3.5399692E2,7.788411E1,2.278198E1,9.217001E1,9.26152E0,5.7484627E0,1.0471346E3,1.3002007E1,3.645998E1,3.041409E0,8.880871E0,7.829715E0,9.82365E0,1.5973431E0,3.3732654E2,1.1799432E1,1.1442704E0,1.0746285E0,1.2614907E0,7.108377E0,2.5841274E1,1.2073257E0,1.2652934E4,4.3579773E1,2.0042634E0],"tree_param":{"num_deleted":"0","num_feature":"17","num_nodes":"93","size_leaf_vector":"1"}},{"base_weights":[-6.607348E-2,-1.0683112E0,1.2511595E0,-1.1420766E0,-4.1631427E-1,6.833575E-1,1.2716823E0,-1.1454666E0,-9.021906E-1,-7.841856E-1,7.0896757E-1,-6.223736E-1,9.6431065E-1,9.82442E-1,1.2809812E0,-3.4443152E-1,-1.0192065E0,-4.0836117E-1,-1.0271276E0,7.9067856E-1,-9.230937E-1,9.556426E-1,-3.4403604E-1,9.812574E-1,-9.152983E-1,1.0351049E0,-3.2754916E-1,-2.6335135E0,1.0433686E0,-8.123662E-1,1.2817358E0,4.000882E-1,-1.1245124E0,3.9433506E-1,-3.4606448E-1,-4.1386214E-1,-1.1134324E0,1.2437258E0,-3.2662323E-1,-1.0916418E0,2.7124617E-1,-3.965185E-1,1.1174678E0,-2.2995387E-1,3.7434855E-1,-3.5727692E-1,4.4779658E-1,1.0729955E0,-1.2262734E0,-3.1482232E-1,-9.250612E-1,1.0805265E0,-6.148306E-1,-3.1557232E-1,-3.171275E-2,5.6644964E-1,1.2835901E0,-3.184213E-1,4.1155648E-1,-3.4530184E-1,-1.6283825E-1,2.8263426E-1,-3.3884892E-1,-2.1688427E-1,6.102465E-1,-3.4491175E-1,-1.08306855E-1,3.849379E-1,-1.9076447E-1,-1.6639718E-1,-3.44566E-1,2.9222196E-1,-3.766936E-1,3.5912892E-1,-3.7663415E-1,2.9492947E-1,-2.8785828E-1,-3.3763144E-2,3.416419E-1,8.54546E-2,-5.117717E-1,-7.052599E-1,3.3202606E-1,-5.07917E-1,3.76044E-1,1.757173E-1,3.8561538E-1],"categories":[],"categories_nodes":[],"categories_segments":[],"categories_sizes":[],"default_left":[0,0,0,0,0,0,0,0,0,0,0,0,0,0,0,0,0,0,0,0,0,0,0,0,0,0,0,0,0,0,0,0,0,0,0,0,0,0,0,0,0,0,0,0,0,0,0,0,0,0,0,0,0,0,0,0,0,0,0,0,0,0,0,0,0,0,0,0,0,0,0,0,0,0,0,0,0,0,0,0,0,0,0,0,0,0,0],"id":3,"left_children":[1,3,5,7,9,11,13,15,17,19,21,23,25,27,29,-1,31,33,35,37,39,41,-1,43,45,47,-1,49,51,53,55,57,59,61,-1,63,65,67,-1,69,71,-1,73,-1,-1,-1,75,77,79,-1,-1,81,-1,-1,-1,83,85,-1,-1,-1,-1,-1,-1,-1,-1,-1,-1,-1,-1,-1,-1,-1,-1,-1,-1,-1,-1,-1,-1,-1,-1,-1,-1,-1,-1,-1,-1],"loss_changes":[3.3442055E4,6.9140234E2,1.2667969E2,9.4765625E0,6.064747E2,1.4146376E2,2.715039E1,3.0722656E0,1.0981583E1,2.4214893E2,1.6641626E2,3.312217E1,4.718387E1,7.6176056E1,1.7201172E1,0E0,4.075537E1,2.3765886E1,7.3099365E0,7.797559E1,2.0453577E2,1.1915686E2,0E0,6.117692E0,2.2519947E1,2.756668E1,0E0,9.0353775E-1,3.9965393E1,6.16364E-1,1.28359375E1,2.8957798E1,3.2483826E0,1.7346985E1,0E0,1.6379745E1,3.0814667E0,6.220314E0,0E0,2.6540771E1,1.367334E2,0E0,5.7937927E1,0E0,0E0,0E0,8.905962E0,2.3678894E1,4.483384E0,0E0,0E0,3.1872437E1,0E0,0E0,0E0,4.595189E1,1.2021484E1,0E0,0E0,0E0,0E0,0E0,0E0,0E0,0E0,0E0,0E0,0E0,0E0,0E0,0E0,0E0,0E0,0E0,0E0,0E0,0E0,0E0,0E0,0E0,0E0,0E0,0E0,0E0,0E0,0E0,0E0],"parents":[2147483647,0,0,1,1,2,2,3,3,4,4,5,5,6,6,7,7,8,8,9,9,10,10,11,11,12,12,13,13,14,14,16,16,17,17,18,18,19,19,20,20,21,21,23,23,24,24,25,25,27,27,28,28,29,29,30,30,31,31,32,32,33,33,35,35,36,36,37,37,39,39,40,40,42,42,46,46,47,47,48,48,51,51,55,55,56,56],"right_children":[2,4,6,8,10,12,14,16,18,20,22,24,26,28,30,-1,32,34,36,38,40,42,-1,44,46,48,-1,50,52,54,56,58,60,62,-1,64,66,68,-1,70,72,-1,74,-1,-1,-1,76,78,80,-1,-1,82,-1,-1,-1,84,86,-1,-1,-1,-1,-1,-1,-1,-1,-1,-1,-1,-1,-1,-1,-1,-1,-1,-1,-1,-1,-1,-1,-1,-1,-1,-1,-1,-1,-1,-1],"split_conditions":[1.7803222E-2,4.5746957E2,1.3900901E-1,2.7838198E-3,4.1755114E-4,3.0261584E2,1.3862275E-1,4.3420087E2,1.0511216E0,7.758712E-1,3.8484097E0,1.7618085E-1,4.9505596E0,4.9874454E1,1.8008034E-1,-3.4443152E-1,1.0666118E0,2.0971227E0,2.3041835E0,7.737535E-1,5.2454334E-1,6.6813034E1,-3.4403604E-1,1.9854979E2,2.6844759E1,1.9405351E0,-3.2754916E-1,3.0289366E1,6.498137E1,2.0040069E0,3.0289366E1,5.122898E1,5.627787E-1,8.680965E-1,-3.4606448E-1,4.2456497E2,3.0095873E0,4.6016037E-2,-3.2662323E-1,7.2694254E-1,7.4872637E-1,-3.965185E-1,7.2594843E0,-2.2995387E-1,3.7434855E-1,-3.5727692E-1,1.9106299E2,6.5267105E1,8.632993E-1,-3.1482232E-1,-9.250612E-1,6.606099E-1,-6.148306E-1,-3.1557232E-1,-3.171275E-2,3.5761514E0,4.931904E0,-3.184213E-1,4.1155648E-1,-3.4530184E-1,-1.6283825E-1,2.8263426E-1,-3.3884892E-1,-2.1688427E-1,6.102465E-1,-3.4491175E-1,-1.08306855E-1,3.849379E-1,-1.9076447E-1,-1.6639718E-1,-3.44566E-1,2.9222196E-1,-3.766936E-1,3.5912892E-1,-3.7663415E-1,2.9492947E-1,-2.8785828E-1,-3.3763144E-2,3.416419E-1,8.54546E-2,-5.117717E-1,-7.052599E-1,3.3202606E-1,-5.07917E-1,3.76044E-1,1.757173E-1,3.8561538E-1],"split_indices":[16,4,16,16,16,4,8,4,0,2,0,12,0,15,7,0,9,1,3,0,8,15,0,4,0,9,0,15,2,1,15,2,8,6,0,4,9,1,0,0,7,0,3,0,0,0,4,15,2,0,0,0,0,0,0,5,13,0,0,0,0,0,0,0,0,0,0,0,0,0,0,0,0,0,0,0,0,0,0,0,0,0,0,0,0,0,0],"split_type":[0,0,0,0,0,0,0,0,0,0,0,0,0,0,0,0,0,0,0,0,0,0,0,0,0,0,0,0,0,0,0,0,0,0,0,0,0,0,0,0,0,0,0,0,0,0,0,0,0,0,0,0,0,0,0,0,0,0,0,0,0,0,0,0,0,0,0,0,0,0,0,0,0,0,0,0,0,0,0,0,0,0,0,0,0,0,0],"sum_hessian":[2.532941E4,1.4384741E4,1.094467E4,1.2922023E4,1.4627169E3,3.8298224E2,1.0561688E4,1.2738234E4,1.8378908E2,1.1025726E3,3.6014423E2,6.759925E1,3.15383E2,3.3229874E2,1.022939E4,1.2469562E4,2.6867377E2,3.7971264E1,1.4581781E2,8.898761E1,1.0135851E3,3.1831717E2,4.1827076E1,1.0077826E1,5.7521423E1,3.0536563E2,1.0017359E1,4.8065834E0,3.2749216E2,3.298133E0,1.0226091E4,1.8364262E1,2.503095E2,1.8506916E1,1.9464348E1,1.8704264E1,1.2711355E2,7.197565E1,1.7011965E1,8.8831055E2,1.2527452E2,2.0642797E1,2.9767435E2,1.0854741E0,8.992352E0,4.7951664E1,9.569758E0,3.0085025E2,4.5153937E0,1.800529E0,3.0060544E0,3.242472E2,3.2449653E0,2.0982893E0,1.1998436E0,2.723442E1,1.0198856E4,7.2972665E0,1.1066996E1,2.3847003E2,1.1839471E1,1.3894087E1,4.6128283E0,1.72331E1,1.4711621E0,1.2076354E2,6.3500037E0,7.080869E1,1.166957E0,8.615414E1,8.0215643E2,8.603481E1,3.9239708E1,2.8848898E2,9.185389E0,7.1511345E0,2.418624E0,1.5784919E1,2.8506534E2,1.1857367E0,3.3296568E0,1.7871774E0,3.2246002E2,6.0086975E0,2.1225723E1,2.699791E1,1.0171858E4],"tree_param":{"num_deleted":"0","num_feature":"17","num_nodes":"87","size_leaf_vector":"1"}},{"base_weights":[-6.487717E-2,-1.0216459E0,1.1431506E0,-1.0970079E0,-3.8226572E-1,7.2207993E-1,1.1761981E0,-1.1003609E0,-7.683377E-1,5.507164E-1,-7.893088E-1,-7.0220137E-1,9.4710857E-1,1.1790274E0,4.4043258E-1,-1.103407E0,-9.586374E-1,-8.7094384E-1,4.2685726E-1,1.1088208E0,-3.5258305E-1,2.5605807E-1,-1.0076448E0,-2.1564474E0,-1.4247006E-1,9.997272E-1,-1.4290285E0,9.8026586E-1,1.1869969E0,8.5359085E-1,-5.77489E-1,-3.3150038E-1,-9.634537E-1,-3.3128864E-1,2.5704184E-1,-4.087934E-1,-1.0379357E0,1.3163353E0,-2.6195836E-1,1.258779E0,-3.3975896E-1,-8.359185E-1,8.6687154E-1,-1.1011475E0,3.806546E-1,-3.2435945E-1,-3.5340946E0,-1.1652365E0,4.9466822E-1,-3.6735764E-1,1.0220858E0,-3.073435E-1,-5.6131566E-1,-1.234396E0,1.019156E0,-2.2834568E-1,1.1877306E0,-3.6348474E-1,1.0526317E0,-7.89007E-2,-3.2889077E-1,3.325913E-1,-2.8587553E-1,5.8766715E-2,-3.170442E-1,-3.2237265E-1,-1.07086495E-1,4.5834318E-1,6.923888E-2,-3.8944444E-1,3.8535514E-1,-3.3732343E-1,2.6740223E-1,-3.4732512E-1,3.2180187E-1,-7.195988E-2,-3.318839E-1,3.1676018E-1,-1.5002887E-1,-2.4693747E-1,-1.2407246E0,-4.2479545E-1,2.1718978E-3,2.3948349E-1,-4.0629292E-1,3.153047E-1,-9.663466E-2,2.2244161E-1,-6.3785267E-1,-4.8229992E-1,3.1160143E-1,-4.6405455E-1,2.579104E-1,-2.0831889E-1,3.5647058E-1,-1.9309488E-1,3.509732E-1],"categories":[],"categories_nodes":[],"categories_segments":[],"categories_sizes":[],"default_left":[0,0,0,0,0,0,0,0,0,0,0,0,0,0,0,0,0,0,0,0,0,0,0,0,0,0,0,0,0,0,0,0,0,0,0,0,0,0,0,0,0,0,0,0,0,0,0,0,0,0,0,0,0,0,0,0,0,0,0,0,0,0,0,0,0,0,0,0,0,0,0,0,0,0,0,0,0,0,0,0,0,0,0,0,0,0,0,0,0,0,0,0,0,0,0,0,0],"id":4,"left_children":[1,3,5,7,9,11,13,15,17,19,21,23,25,27,29,31,33,35,37,39,-1,41,43,45,47,49,51,53,55,57,-1,-1,59,-1,61,63,65,67,-1,69,-1,71,73,75,77,-1,79,81,83,-1,85,-1,-1,87,89,91,93,-1,95,-1,-1,-1,-1,-1,-1,-1,-1,-1,-1,-1,-1,-1,-1,-1,-1,-1,-1,-1,-1,-1,-1,-1,-1,-1,-1,-1,-1,-1,-1,-1,-1,-1,-1,-1,-1,-1,-1],"loss_changes":[2.2828732E4,5.306719E2,1.20625E2,1.0019531E1,4.423573E2,2.0510187E2,1.6328125E1,3.1533203E0,1.2988361E1,3.4236847E2,1.852731E2,7.100021E1,7.035184E1,1.1604492E1,3.3499283E1,1.0654297E0,3.7987976E1,6.913147E0,1.1331149E1,9.1525024E1,0E0,9.4671196E1,8.74906E1,3.213945E1,4.249441E1,2.8101562E1,2.9239655E-1,2.8517426E1,8.313477E0,1.2966963E1,0E0,0E0,1.0442207E1,0E0,2.5367453E1,1.0741926E1,1.3427658E0,9.391022E-1,0E0,1.8233856E1,0E0,2.6432629E1,3.908242E1,2.5135498E0,2.614071E1,0E0,1.3234024E1,7.356968E0,2.3725271E1,0E0,2.1146362E1,0E0,0E0,1.1997382E1,1.7642609E1,8.290095E0,8.178711E0,0E0,6.0203514E0,0E0,0E0,0E0,0E0,0E0,0E0,0E0,0E0,0E0,0E0,0E0,0E0,0E0,0E0,0E0,0E0,0E0,0E0,0E0,0E0,0E0,0E0,0E0,0E0,0E0,0E0,0E0,0E0,0E0,0E0,0E0,0E0,0E0,0E0,0E0,0E0,0E0,0E0],"parents":[2147483647,0,0,1,1,2,2,3,3,4,4,5,5,6,6,7,7,8,8,9,9,10,10,11,11,12,12,13,13,14,14,15,15,16,16,17,17,18,18,19,19,21,21,22,22,23,23,24,24,25,25,26,26,27,27,28,28,29,29,32,32,34,34,35,35,36,36,37,37,39,39,41,41,42,42,43,43,44,44,46,46,47,47,48,48,50,50,53,53,54,54,55,55,56,56,58,58],"right_children":[2,4,6,8,10,12,14,16,18,20,22,24,26,28,30,32,34,36,38,40,-1,42,44,46,48,50,52,54,56,58,-1,-1,60,-1,62,64,66,68,-1,70,-1,72,74,76,78,-1,80,82,84,-1,86,-1,-1,88,90,92,94,-1,96,-1,-1,-1,-1,-1,-1,-1,-1,-1,-1,-1,-1,-1,-1,-1,-1,-1,-1,-1,-1,-1,-1,-1,-1,-1,-1,-1,-1,-1,-1,-1,-1,-1,-1,-1,-1,-1,-1],"split_conditions":[1.7803222E-2,4.5746957E2,3.1272298E-1,4.1361083E-3,8.4086263E-1,3.002337E2,1.4792274E1,4.3420087E2,4.226655E2,2.9310977E0,1.1588709E0,2.283318E0,5.714777E0,1.4370061E-1,9.655351E-1,1.550771E-3,5.2454334E-1,2.97158E0,1.3004215E0,4.9407727E2,-3.5258305E-1,4.2538092E-1,2.7838198E-3,1.3900901E-1,2.8724575E-1,4.722556E0,1.3900901E-1,5.0567776E1,1.8042208E-1,1.0488687E0,-5.77489E-1,-3.3150038E-1,1.0027972E0,-3.3128864E-1,6.344582E-1,4.0650177E-1,2.949276E0,1.156698E0,-2.6195836E-1,2.3269424E-1,-3.3975896E-1,4.1361083E-3,6.649473E1,8.6141074E-1,7.323109E-1,-3.2435945E-1,4.856084E0,2.6844759E1,3.2951481E0,-3.6735764E-1,1.8816909E0,-3.073435E-1,-5.6131566E-1,8.632993E-1,6.835058E-1,4.0929276E2,1.8008034E-1,-3.6348474E-1,1.8028114E1,-7.89007E-2,-3.2889077E-1,3.325913E-1,-2.8587553E-1,5.8766715E-2,-3.170442E-1,-3.2237265E-1,-1.07086495E-1,4.5834318E-1,6.923888E-2,-3.8944444E-1,3.8535514E-1,-3.3732343E-1,2.6740223E-1,-3.4732512E-1,3.2180187E-1,-7.195988E-2,-3.318839E-1,3.1676018E-1,-1.5002887E-1,-2.4693747E-1,-1.2407246E0,-4.2479545E-1,2.1718978E-3,2.3948349E-1,-4.0629292E-1,3.153047E-1,-9.663466E-2,2.2244161E-1,-6.3785267E-1,-4.8229992E-1,3.1160143E-1,-4.6405455E-1,2.579104E-1,-2.0831889E-1,3.5647058E-1,-1.9309488E-1,3.509732E-1],"split_indices":[16,4,16,16,0,4,0,4,4,1,9,0,0,8,6,16,8,3,9,4,0,7,16,16,7,13,16,15,0,5,0,0,0,0,7,7,9,5,0,7,0,16,15,0,1,0,13,0,2,0,9,0,0,2,0,4,7,0,0,0,0,0,0,0,0,0,0,0,0,0,0,0,0,0,0,0,0,0,0,0,0,0,0,0,0,0,0,0,0,0,0,0,0,0,0,0,0],"split_type":[0,0,0,0,0,0,0,0,0,0,0,0,0,0,0,0,0,0,0,0,0,0,0,0,0,0,0,0,0,0,0,0,0,0,0,0,0,0,0,0,0,0,0,0,0,0,0,0,0,0,0,0,0,0,0,0,0,0,0,0,0,0,0,0,0,0,0,0,0,0,0,0,0,0,0,0,0,0,0,0,0,0,0,0,0,0,0,0,0,0,0,0,0,0,0,0,0],"sum_hessian":[1.9749393E4,1.1020898E4,8.728495E3,9.858221E3,1.1626771E3,6.3686035E2,8.0916343E3,9.756341E3,1.0187981E2,3.53065E2,8.096121E2,8.660266E1,5.502577E2,8.0600376E3,3.1596655E1,9.544412E3,2.119294E2,9.407488E1,7.804928E0,2.6706607E2,8.599894E1,1.398507E2,6.697614E2,2.3276081E1,6.3326576E1,5.389032E2,1.1354543E1,3.1549658E2,7.744541E3,2.7442474E1,4.1541805E0,9.430097E3,1.1431508E2,1.8933556E2,2.2593832E1,2.588528E1,6.81896E1,4.6268044E0,3.1781232E0,2.5072932E2,1.6336731E1,5.0034107E1,8.981658E1,6.2769275E2,4.2068665E1,1.4075226E1,9.200856E0,2.3989141E1,3.9337437E1,4.828125E0,5.340751E2,7.660855E0,3.6936882E0,4.914107E0,3.1058246E2,3.851737E0,7.7406895E3,1.9651557E0,2.547732E1,1.8699703E1,9.561537E1,1.3309831E1,9.284E0,1.3751325E1,1.2133955E1,6.415956E1,4.0300374E0,3.5314221E0,1.0953822E0,2.0060217E0,2.4872331E2,4.3172333E1,6.861774E0,7.8605795E0,8.1956E1,4.000824E0,6.2369196E2,2.3700361E1,1.8368303E1,2.1012075E0,7.0996485E0,1.959156E1,4.3975806E0,3.427723E1,5.060207E0,5.230364E2,1.1038682E1,1.5806012E0,3.3335056E0,1.6902516E0,3.088922E2,1.5507967E0,2.30094E0,1.706586E0,7.738983E3,1.3573186E0,2.412E1],"tree_param":{"num_deleted":"0","num_feature":"17","num_nodes":"97","size_leaf_vector":"1"}},{"base_weights":[-6.644705E-2,-1.0014614E0,1.0582964E0,-1.0673386E0,-4.3840373E-1,5.227863E-1,1.1014112E0,-1.0700846E0,-7.996819E-1,4.7867763E-1,-8.412235E-1,-2.1524954E-1,9.559098E-1,2.0879087E-1,1.1054623E0,-3.2215732E-1,-8.972997E-1,-1.7531744E-1,-9.924088E-1,1.0798064E0,-9.451922E-1,-1.0247259E0,3.594245E-1,-1.3462036E0,1.7465536E-2,1.0047554E0,-3.2747424E-1,9.2945606E-1,-1.0308685E0,1.1063163E0,-5.271602E-1,-3.2164067E-1,2.6738364E-1,5.280116E-1,-3.074081E-1,3.3148345E-2,-1.0274638E0,1.1632015E0,-2.9977262E-1,2.8215545E-1,-3.4088737E-1,-1.0694587E0,-2.2359687E-1,-3.4491858E-1,9.225618E-1,-3.2683486E-1,-2.0269551E0,-1.9746301E0,1.8095057E-1,-3.5614341E-1,1.0286704E0,-2.4885075E-1,3.338786E-1,1.9426424E-2,-3.7473333E-1,1.1073246E0,-1.1354638E0,-3.3511922E-1,3.042766E-1,3.1886098E-1,-2.6517043E-1,-2.7088309E-2,-3.15691E-1,-5.302146E-1,3.5686743E-1,-2.8822353E-1,3.5312438E-1,-6.635932E-2,-3.2298258E-1,2.3537125E-1,-2.3299122E-1,3.5016236E-1,-3.5997668E-1,-2.1021177E-1,-6.6650265E-1,-3.172228E-1,-7.4895585E-1,-3.465825E-1,1.2277927E-1,-3.8715526E-1,3.1340426E-1,2.9819223E-1,3.3821684E-1,-6.644198E-1,1.8063438E-1],"categories":[],"categories_nodes":[],"categories_segments":[],"categories_sizes":[],"default_left":[0,0,0,0,0,0,0,0,0,0,0,0,0,0,0,0,0,0,0,0,0,0,0,0,0,0,0,0,0,0,0,0,0,0,0,0,0,0,0,0,0,0,0,0,0,0,0,0,0,0,0,0,0,0,0,0,0,0,0,0,0,0,0,0,0,0,0,0,0,0,0,0,0,0,0,0,0,0,0,0,0,0,0,0,0],"id":5,"left_children":[1,3,5,7,9,11,13,15,17,19,21,23,25,27,29,-1,31,33,35,37,39,41,43,45,47,49,-1,51,53,55,-1,-1,57,59,-1,-1,61,63,-1,65,-1,67,69,-1,71,-1,73,75,77,-1,79,-1,-1,-1,-1,81,83,-1,-1,-1,-1,-1,-1,-1,-1,-1,-1,-1,-1,-1,-1,-1,-1,-1,-1,-1,-1,-1,-1,-1,-1,-1,-1,-1,-1],"loss_changes":[1.6081654E4,3.0926074E2,1.5969531E2,4.6376953E0,3.2413336E2,1.6615506E2,2.299707E1,3.8583984E0,9.436398E0,2.3048016E2,1.3459775E2,5.0768585E1,3.383383E1,2.7986336E1,1.7577148E1,0E0,3.3709656E1,1.2520195E1,2.4647026E0,3.3925934E1,1.9111069E1,1.8708923E1,7.033288E1,3.5450096E0,5.275613E1,1.8007294E1,0E0,7.267103E0,2.8536768E0,1.570752E1,0E0,0E0,2.4112492E1,9.721552E0,0E0,0E0,1.2793007E0,1.6171204E1,0E0,1.4027418E1,0E0,2.7973633E0,1.690452E1,0E0,3.2511772E1,0E0,4.711914E-1,3.2415009E0,4.6114143E1,0E0,1.3130188E1,0E0,0E0,0E0,0E0,1.3414551E1,7.6491976E0,0E0,0E0,0E0,0E0,0E0,0E0,0E0,0E0,0E0,0E0,0E0,0E0,0E0,0E0,0E0,0E0,0E0,0E0,0E0,0E0,0E0,0E0,0E0,0E0,0E0,0E0,0E0,0E0],"parents":[2147483647,0,0,1,1,2,2,3,3,4,4,5,5,6,6,7,7,8,8,9,9,10,10,11,11,12,12,13,13,14,14,16,16,17,17,18,18,19,19,20,20,21,21,22,22,23,23,24,24,25,25,27,27,28,28,29,29,32,32,33,33,36,36,37,37,39,39,41,41,42,42,44,44,46,46,47,47,48,48,50,50,55,55,56,56],"right_children":[2,4,6,8,10,12,14,16,18,20,22,24,26,28,30,-1,32,34,36,38,40,42,44,46,48,50,-1,52,54,56,-1,-1,58,60,-1,-1,62,64,-1,66,-1,68,70,-1,72,-1,74,76,78,-1,80,-1,-1,-1,-1,82,84,-1,-1,-1,-1,-1,-1,-1,-1,-1,-1,-1,-1,-1,-1,-1,-1,-1,-1,-1,-1,-1,-1,-1,-1,-1,-1,-1,-1],"split_conditions":[7.898747E-3,4.5746957E2,2.5141364E-1,2.7838198E-3,8.4086263E-1,4.2018854E2,5.0013084E0,4.3420087E2,1.0279171E0,1.9945387E0,5.2454334E-1,1.8332272E2,5.387635E0,6.255979E-1,3.868423E0,-3.2215732E-1,5.2454334E-1,2.0488734E0,1.0212586E0,4.9407727E2,4.6215265E2,2.052581E-3,1.2592275E1,1.3900901E-1,7.964027E-1,5.0013084E0,-3.2747424E-1,9.389364E-1,2.2159953E0,1.5E1,-5.271602E-1,-3.2164067E-1,1.1099047E1,1.4127599E0,-3.074081E-1,3.3148345E-2,6.740713E-1,4.856084E0,-2.9977262E-1,1.362065E-4,-3.4088737E-1,8.6141074E-1,8.2158583E-1,-3.4491858E-1,1.1973536E0,-3.2683486E-1,5.0013084E0,2.9780338E2,6.896481E1,-3.5614341E-1,1.0519972E0,-2.4885075E-1,3.338786E-1,1.9426424E-2,-3.7473333E-1,8.51543E-1,4.5449408E2,-3.3511922E-1,3.042766E-1,3.1886098E-1,-2.6517043E-1,-2.7088309E-2,-3.15691E-1,-5.302146E-1,3.5686743E-1,-2.8822353E-1,3.5312438E-1,-6.635932E-2,-3.2298258E-1,2.3537125E-1,-2.3299122E-1,3.5016236E-1,-3.5997668E-1,-2.1021177E-1,-6.6650265E-1,-3.172228E-1,-7.4895585E-1,-3.465825E-1,1.2277927E-1,-3.8715526E-1,3.1340426E-1,2.9819223E-1,3.3821684E-1,-6.644198E-1,1.8063438E-1],"split_indices":[16,4,16,16,0,4,13,4,0,1,8,4,0,6,9,0,8,1,9,4,4,16,13,16,0,13,0,16,3,10,0,0,13,9,0,0,2,13,0,16,0,0,2,0,6,0,13,4,15,0,10,0,0,0,0,16,4,0,0,0,0,0,0,0,0,0,0,0,0,0,0,0,0,0,0,0,0,0,0,0,0,0,0,0,0],"split_type":[0,0,0,0,0,0,0,0,0,0,0,0,0,0,0,0,0,0,0,0,0,0,0,0,0,0,0,0,0,0,0,0,0,0,0,0,0,0,0,0,0,0,0,0,0,0,0,0,0,0,0,0,0,0,0,0,0,0,0,0,0,0,0,0,0,0,0,0,0,0,0,0,0,0,0,0,0,0,0,0,0,0,0,0,0],"sum_hessian":[1.5289803E4,8.349151E3,6.9406514E3,7.473826E3,8.7532495E2,5.1814215E2,6.4225093E3,7.3949604E3,7.886567E1,2.6708237E2,6.0824255E2,1.9180772E2,3.2633444E2,2.9253874E1,6.3932554E3,7.231823E3,1.6313712E2,1.905244E1,5.981323E1,1.8796782E2,7.911455E1,5.277325E2,8.051008E1,3.1916143E1,1.5989157E2,3.192281E2,7.1063385E0,1.8657646E1,1.0596228E1,6.391962E3,1.2934549E0,1.4191333E2,2.1223793E1,1.0629225E1,8.423216E0,1.7762601E0,5.803697E1,1.8114235E2,6.8254786E0,1.0594444E1,6.85201E1,4.9950647E2,2.8226028E1,2.1595255E1,5.891482E1,2.5063494E1,6.8526506E0,1.1286395E1,1.4860518E2,2.9204211E0,3.1630768E2,1.4297215E0,1.7227924E1,1.8769305E0,8.719297E0,6.389594E3,2.3677957E0,7.263696E0,1.3960096E1,7.888232E0,2.7409928E0,1.6182263E0,5.6418743E1,1.0258192E0,1.8011652E2,4.4042034E0,6.1902404E0,4.4419546E0,4.950645E2,9.850452E0,1.8375576E1,5.3229454E1,5.685367E0,1.4660228E0,5.3866277E0,5.1903925E0,6.0960026E0,2.1093515E1,1.27511665E2,1.6228695E0,3.146848E2,9.685519E2,5.421042E3,1.2911872E0,1.0766085E0],"tree_param":{"num_deleted":"0","num_feature":"17","num_nodes":"85","size_leaf_vector":"1"}},{"base_weights":[-6.590912E-2,-9.659816E-1,1.0070094E0,-1.0435164E0,-3.5869077E-1,5.431591E-1,1.0487659E0,-1.0497828E0,-7.4624187E-1,4.1658846E-1,-7.214602E-1,-6.967025E-2,9.207473E-1,2.0508495E-1,1.0545952E0,-3.158949E-1,-9.014177E-1,-1.0051033E0,-3.0390817E-1,8.899666E-1,-1.0547413E0,1.9026642E-1,-9.4308877E-1,-1.4168805E0,1.2453893E-1,9.451106E-1,-7.9370975E-1,6.5367633E-1,-1.412601E0,-1.0461871E-1,1.058444E0,1.6057138E-1,-3.150099E-1,-1.0400814E0,-1.9263527E-1,9.7213835E-1,-6.147272E-1,-2.6880684E-1,1.1113489E0,-3.1332836E-1,-3.2766265E-1,-6.028071E-1,8.263816E-1,-1.0313507E0,2.5693944E-1,-3.0867103E-1,-5.4653305E-1,3.3570826E-1,-1.3556682E0,-3.752708E-1,9.662898E-1,-4.216487E-1,8.040296E-1,2.0051788E-1,-1.9350172E0,-5.338859E-1,3.0188042E-1,7.910992E-1,1.0701642E0,-3.0483514E-1,2.7044195E-1,-3.4327324E-2,-3.1594902E-1,-2.3170233E-1,2.504642E-1,-2.5485268E-1,3.9920038E-1,7.4788104E-3,-3.148496E-1,2.9178932E-1,-3.4939772E-1,-3.967177E-1,3.4366336E-1,-2.4844849E-1,1.953421E-1,2.0497762E-1,-3.4813368E-1,3.2883748E-1,-2.9015562E-1,-1.3889146E-1,-3.151201E-1,-2.2464521E-1,2.0594284E-1,1.8955411E-1,-2.1772249E-1,-7.919177E-1,1.3934697E-1,-2.703244E-1,2.9464886E-1,2.7164054E-1,-2.2952731E-1,-3.0750573E-1,-9.070905E-1,2.769276E-1,-1.4456595E-1,-1.5754253E-1,3.2141036E-1],"categories":[],"categories_nodes":[],"categories_segments":[],"categories_sizes":[],"default_left":[0,0,0,0,0,0,0,0,0,0,0,0,0,0,0,0,0,0,0,0,0,0,0,0,0,0,0,0,0,0,0,0,0,0,0,0,0,0,0,0,0,0,0,0,0,0,0,0,0,0,0,0,0,0,0,0,0,0,0,0,0,0,0,0,0,0,0,0,0,0,0,0,0,0,0,0,0,0,0,0,0,0,0,0,0,0,0,0,0,0,0,0,0,0,0,0,0],"id":6,"left_children":[1,3,5,7,9,11,13,15,17,19,21,23,25,27,29,-1,31,33,35,37,39,41,43,45,47,49,-1,51,53,55,57,59,-1,61,63,65,67,69,71,73,-1,75,77,79,81,-1,-1,83,85,-1,87,-1,89,-1,91,-1,-1,93,95,-1,-1,-1,-1,-1,-1,-1,-1,-1,-1,-1,-1,-1,-1,-1,-1,-1,-1,-1,-1,-1,-1,-1,-1,-1,-1,-1,-1,-1,-1,-1,-1,-1,-1,-1,-1,-1,-1],"loss_changes":[1.1368079E4,3.0104834E2,1.0344678E2,9.790527E0,2.0456818E2,1.0317238E2,2.40083E1,1.6884766E0,1.3508026E1,1.6262987E2,1.0023004E2,4.48665E1,2.6463455E1,2.6352228E1,2.1935547E1,0E0,1.9781784E1,1.9500275E0,1.8830093E1,4.5495163E1,1.2402611E0,4.9764957E1,4.247113E1,1.5189438E0,4.740552E1,1.3982544E1,0E0,9.835329E0,9.907764E0,3.360475E1,1.44296875E1,1.4972067E1,0E0,7.552414E-1,3.2362244E0,7.2641172E0,1.0476847E1,3.3457924E1,1.3841675E1,2.5962417E0,0E0,3.2379753E1,2.7482086E1,3.534729E0,1.2653968E1,0E0,0E0,4.203076E1,4.551988E1,0E0,8.964798E0,0E0,4.9649315E0,0E0,3.4295998E0,0E0,0E0,3.5494507E1,9.526855E0,0E0,0E0,0E0,0E0,0E0,0E0,0E0,0E0,0E0,0E0,0E0,0E0,0E0,0E0,0E0,0E0,0E0,0E0,0E0,0E0,0E0,0E0,0E0,0E0,0E0,0E0,0E0,0E0,0E0,0E0,0E0,0E0,0E0,0E0,0E0,0E0,0E0,0E0],"parents":[2147483647,0,0,1,1,2,2,3,3,4,4,5,5,6,6,7,7,8,8,9,9,10,10,11,11,12,12,13,13,14,14,16,16,17,17,18,18,19,19,20,20,21,21,22,22,23,23,24,24,25,25,27,27,28,28,29,29,30,30,31,31,33,33,34,34,35,35,36,36,37,37,38,38,39,39,41,41,42,42,43,43,44,44,47,47,48,48,50,50,52,52,54,54,57,57,58,58],"right_children":[2,4,6,8,10,12,14,16,18,20,22,24,26,28,30,-1,32,34,36,38,40,42,44,46,48,50,-1,52,54,56,58,60,-1,62,64,66,68,70,72,74,-1,76,78,80,82,-1,-1,84,86,-1,88,-1,90,-1,92,-1,-1,94,96,-1,-1,-1,-1,-1,-1,-1,-1,-1,-1,-1,-1,-1,-1,-1,-1,-1,-1,-1,-1,-1,-1,-1,-1,-1,-1,-1,-1,-1,-1,-1,-1,-1,-1,-1,-1,-1,-1],"split_conditions":[1.7803222E-2,4.5746957E2,3.1272298E-1,2.052581E-3,8.6141074E-1,4.2018854E2,5.0872283E0,4.3420087E2,3.077182E2,2.9773636E0,1.1621886E0,1.8332272E2,5.757459E2,7.035419E-1,3.0289366E1,-3.158949E-1,1.0878779E0,2.949276E0,3.124004E2,2.640325E-5,4.5980652E2,5.122898E1,4.1361083E-3,1.3900901E-1,3.500214E2,1.0519972E0,-7.9370975E-1,7.470951E-1,2.1809108E0,3.5761514E0,1.4370061E-1,1.1005244E1,-3.150099E-1,1.7618085E-1,2.4389757E1,1.9511397E-1,1.3004215E0,9.2466885E-1,4.856084E0,8.582197E-5,-3.2766265E-1,8.7591004E-1,7.1573364E1,8.0769676E-1,3.0299997E-1,-3.0867103E-1,-5.4653305E-1,9.3724287E-1,8.911804E1,-3.752708E-1,4.856084E0,-4.216487E-1,2.9550185E0,2.0051788E-1,5.0013084E0,-5.338859E-1,3.0188042E-1,9.497794E0,1.8042208E-1,-3.0483514E-1,2.7044195E-1,-3.4327324E-2,-3.1594902E-1,-2.3170233E-1,2.504642E-1,-2.5485268E-1,3.9920038E-1,7.4788104E-3,-3.148496E-1,2.9178932E-1,-3.4939772E-1,-3.967177E-1,3.4366336E-1,-2.4844849E-1,1.953421E-1,2.0497762E-1,-3.4813368E-1,3.2883748E-1,-2.9015562E-1,-1.3889146E-1,-3.151201E-1,-2.2464521E-1,2.0594284E-1,1.8955411E-1,-2.1772249E-1,-7.919177E-1,1.3934697E-1,-2.703244E-1,2.9464886E-1,2.7164054E-1,-2.2952731E-1,-3.0750573E-1,-9.070905E-1,2.769276E-1,-1.4456595E-1,-1.5754253E-1,3.2141036E-1],"split_indices":[16,4,16,16,0,4,13,4,4,1,9,4,4,6,15,0,9,9,4,16,4,2,16,16,4,10,0,5,3,5,8,13,0,12,0,8,9,2,13,16,0,2,2,2,7,0,0,6,2,0,13,0,1,0,13,0,0,2,0,0,0,0,0,0,0,0,0,0,0,0,0,0,0,0,0,0,0,0,0,0,0,0,0,0,0,0,0,0,0,0,0,0,0,0,0,0,0],"split_type":[0,0,0,0,0,0,0,0,0,0,0,0,0,0,0,0,0,0,0,0,0,0,0,0,0,0,0,0,0,0,0,0,0,0,0,0,0,0,0,0,0,0,0,0,0,0,0,0,0,0,0,0,0,0,0,0,0,0,0,0,0,0,0,0,0,0,0,0,0,0,0,0,0,0,0,0,0,0,0,0,0,0,0,0,0,0,0,0,0,0,0,0,0,0,0,0,0],"sum_hessian":[1.1769793E4,6.4005034E3,5.3692896E3,5.6752124E3,7.25291E2,4.4458997E2,4.924699E3,5.5555737E3,1.1963848E2,2.3114969E2,4.9414133E2,1.6980699E2,2.7478296E2,3.40414E1,4.890658E3,5.432304E3,1.2326949E2,7.466875E1,4.4969734E1,1.751825E2,5.5967197E1,9.665741E1,3.974839E2,2.0601406E1,1.4920558E2,2.736486E2,1.13437E0,2.7117514E1,6.9238863E0,1.6097519E1,4.8745605E3,1.5122843E1,1.0814665E2,7.131824E1,3.350511E0,8.391467E0,3.6578266E1,2.8065584E1,1.4711691E2,3.1426477E0,5.282455E1,4.304439E1,5.361302E1,3.7038284E2,2.710106E1,1.232887E1,8.272536E0,1.3125385E2,1.7951736E1,2.059329E0,2.7158926E2,1.2772257E0,2.5840288E1,1.333318E0,5.5905685E0,6.178924E0,9.918595E0,2.0759802E2,4.6669624E3,5.6995106E0,9.423332E0,1.1297032E0,7.018853E1,2.300789E0,1.049722E0,1.154773E0,7.2366943E0,1.5182987E1,2.1395279E1,1.1727859E1,1.6337725E1,1.5164765E0,1.4560043E2,2.1410723E0,1.0015755E0,1.2950877E1,3.0093513E1,4.6942036E1,6.670985E0,1.2831586E1,3.5755127E2,7.888016E0,1.9213043E1,1.02939125E2,2.8314724E1,1.02619915E1,7.6897454E0,1.8190575E0,2.697702E2,2.466849E1,1.1717981E0,4.1026535E0,1.4879148E0,1.8834395E2,1.9254065E1,3.19054E0,4.663772E3],"tree_param":{"num_deleted":"0","num_feature":"17","num_nodes":"97","size_leaf_vector":"1"}},{"base_weights":[-6.747156E-2,-9.3611413E-1,9.7017634E-1,-1.0239677E0,-2.9070184E-1,6.970605E-1,1.0282154E0,-1.0346458E0,-7.0948803E-1,-6.484525E-1,4.7231135E-1,-2.7059438E0,7.806121E-1,1.0315721E0,-7.5309616E-1,-3.1151253E-1,-8.675294E-1,-3.9159253E-1,-1.0586025E0,1.5560332E-1,-8.483185E-1,6.41874E-1,-3.0913717E-1,-3.9982846E-1,-4.984792E0,2.9075889E-2,8.678417E-1,7.697535E-1,1.0422385E0,3.843054E-1,-4.887142E-1,6.660407E-2,-3.0969924E-1,-9.2579836E-1,1.9408663E-1,-1.1679792E0,-6.1587553E-2,1.0323108E0,-8.598566E-1,9.109672E-2,-1.0325644E0,-3.3383235E-1,7.831923E-1,-2.7854005E-1,-6.1541495E0,6.7577136E-1,-1.9191246E0,-1.8998828E0,8.8527185E-1,-8.295212E-1,8.433677E-1,1.0452614E0,3.2180792E-1,-7.5458825E-2,2.1104272E-1,-2.9108036E-1,2.2140087E-1,2.0935985E-1,-3.129843E-1,1.9243492E-1,-3.821022E-1,-3.120503E-1,-4.8271748E-1,-2.5319684E-1,2.904883E-1,3.9757735E-1,-2.9776987E-1,5.624714E-2,-3.067647E-1,-3.1394416E-1,2.4618955E-1,-1.1845299E-1,-3.1479353E-1,2.542503E-1,-3.8540724E-1,-5.168706E-1,-2.118272E0,-4.7902024E-1,2.7108735E-1,-7.447424E-1,-2.56512E-1,-5.9687477E-2,-7.505514E-1,2.7210593E-1,-3.5380995E-1,-4.0820065E-1,2.7000037E-1,3.1390542E-1,-9.5647186E-2,-9.4280773E-1,2.78726E-1],"categories":[],"categories_nodes":[],"categories_segments":[],"categories_sizes":[],"default_left":[0,0,0,0,0,0,0,0,0,0,0,0,0,0,0,0,0,0,0,0,0,0,0,0,0,0,0,0,0,0,0,0,0,0,0,0,0,0,0,0,0,0,0,0,0,0,0,0,0,0,0,0,0,0,0,0,0,0,0,0,0,0,0,0,0,0,0,0,0,0,0,0,0,0,0,0,0,0,0,0,0,0,0,0,0,0,0,0,0,0,0],"id":7,"left_children":[1,3,5,7,9,11,13,15,17,19,21,23,25,27,29,-1,31,33,35,37,39,41,-1,-1,43,45,47,49,51,53,-1,55,-1,57,59,61,63,65,67,69,71,-1,73,-1,75,77,79,81,83,-1,85,87,89,-1,-1,-1,-1,-1,-1,-1,-1,-1,-1,-1,-1,-1,-1,-1,-1,-1,-1,-1,-1,-1,-1,-1,-1,-1,-1,-1,-1,-1,-1,-1,-1,-1,-1,-1,-1,-1,-1],"loss_changes":[8.094186E3,2.768662E2,6.414697E1,1.3712402E1,1.6055124E2,2.0690787E2,2.0943604E1,1.690918E0,1.56178055E1,6.44263E1,4.855745E1,4.8070923E1,4.611316E1,8.600098E0,7.522048E0,0E0,1.4978691E1,2.4332645E1,7.372032E0,7.2549355E1,5.5582108E1,4.290706E1,0E0,0E0,2.373912E1,9.4816185E1,3.2101715E1,3.7621674E1,6.7026367E0,9.522729E-1,0E0,1.1481168E1,0E0,8.462322E0,2.553961E1,1.7909927E0,7.105511E0,2.7209774E1,6.639782E0,4.52462E1,2.4490356E0,0E0,2.2030128E1,0E0,6.4875946E0,3.068215E1,9.122734E0,3.868166E0,2.9236694E1,0E0,1.7903114E1,5.1186523E0,3.4374218E1,0E0,0E0,0E0,0E0,0E0,0E0,0E0,0E0,0E0,0E0,0E0,0E0,0E0,0E0,0E0,0E0,0E0,0E0,0E0,0E0,0E0,0E0,0E0,0E0,0E0,0E0,0E0,0E0,0E0,0E0,0E0,0E0,0E0,0E0,0E0,0E0,0E0,0E0],"parents":[2147483647,0,0,1,1,2,2,3,3,4,4,5,5,6,6,7,7,8,8,9,9,10,10,11,11,12,12,13,13,14,14,16,16,17,17,18,18,19,19,20,20,21,21,24,24,25,25,26,26,27,27,28,28,29,29,31,31,33,33,34,34,35,35,36,36,37,37,38,38,39,39,40,40,42,42,44,44,45,45,46,46,47,47,48,48,50,50,51,51,52,52],"right_children":[2,4,6,8,10,12,14,16,18,20,22,24,26,28,30,-1,32,34,36,38,40,42,-1,-1,44,46,48,50,52,54,-1,56,-1,58,60,62,64,66,68,70,72,-1,74,-1,76,78,80,82,84,-1,86,88,90,-1,-1,-1,-1,-1,-1,-1,-1,-1,-1,-1,-1,-1,-1,-1,-1,-1,-1,-1,-1,-1,-1,-1,-1,-1,-1,-1,-1,-1,-1,-1,-1,-1,-1,-1,-1,-1,-1],"split_conditions":[4.0793374E-2,4.5746957E2,7.476544E-1,1.550771E-3,4.0311037E-4,1.7771643E2,1.5235096E1,4.3420087E2,1.2331072E0,4.684501E2,4.59811E0,3.1272298E-1,2.9780338E2,5.753569E0,6.040519E0,-3.1151253E-1,1.0916369E0,3.077182E2,2.6844759E1,7.2694254E-1,1.9764296E0,6.649473E1,-3.0913717E-1,-3.9982846E-1,5.0013084E0,6.75449E-1,1.1413492E-1,4.3482196E-1,1.4362491E1,5.3874725E-1,-4.887142E-1,1.1005244E1,-3.0969924E-1,9.713395E-2,1E1,1.7803222E-2,2.949276E0,6.9468653E-1,1.9461418E0,1.2592275E1,7.611487E-1,-3.3383235E-1,5.4107263E2,-2.7854005E-1,3.3638313E1,5.6894217E0,1.0114715E1,1.5912814E0,8.143978E0,-8.295212E-1,1.9852026E-1,3.5474136E2,2.5108528E-1,-7.5458825E-2,2.1104272E-1,-2.9108036E-1,2.2140087E-1,2.0935985E-1,-3.129843E-1,1.9243492E-1,-3.821022E-1,-3.120503E-1,-4.8271748E-1,-2.5319684E-1,2.904883E-1,3.9757735E-1,-2.9776987E-1,5.624714E-2,-3.067647E-1,-3.1394416E-1,2.4618955E-1,-1.1845299E-1,-3.1479353E-1,2.542503E-1,-3.8540724E-1,-5.168706E-1,-2.118272E0,-4.7902024E-1,2.7108735E-1,-7.447424E-1,-2.56512E-1,-5.9687477E-2,-7.505514E-1,2.7210593E-1,-3.5380995E-1,-4.0820065E-1,2.7000037E-1,3.1390542E-1,-9.5647186E-2,-9.4280773E-1,2.78726E-1],"split_indices":[16,4,16,16,16,4,0,4,5,4,0,16,4,13,3,0,9,4,0,0,3,15,0,0,13,12,8,0,3,1,0,13,0,12,10,16,9,12,3,13,2,0,4,0,15,13,0,2,0,0,7,2,7,0,0,0,0,0,0,0,0,0,0,0,0,0,0,0,0,0,0,0,0,0,0,0,0,0,0,0,0,0,0,0,0,0,0,0,0,0,0],"split_type":[0,0,0,0,0,0,0,0,0,0,0,0,0,0,0,0,0,0,0,0,0,0,0,0,0,0,0,0,0,0,0,0,0,0,0,0,0,0,0,0,0,0,0,0,0,0,0,0,0,0,0,0,0,0,0,0,0,0,0,0,0,0,0,0,0,0,0,0,0,0,0,0,0,0,0,0,0,0,0,0,0,0,0,0,0,0,0,0,0,0,0],"sum_hessian":[8.97811E3,4.8870933E3,4.0910173E3,4.3010474E3,5.860457E2,7.1928314E2,3.3717344E3,4.1575884E3,1.4345906E2,3.9908066E2,1.8696506E2,1.6484716E1,7.0279846E2,3.3658127E3,5.9215503E0,4.061737E3,9.585139E1,7.6197266E1,6.726179E1,7.949515E1,3.195855E2,1.6852289E2,1.844216E1,1.127531E1,5.2094064E0,7.3228E1,6.2957043E2,1.346184E2,3.2311943E3,2.8204863E0,3.1010637E0,1.4463675E1,8.138771E1,3.954605E1,3.6651215E1,6.0457832E1,6.8039546E0,4.265335E1,3.6841793E1,5.2485107E1,2.671004E2,1.2048685E1,1.5647421E2,1.56716E0,3.6422462E0,5.5468605E1,1.7759396E1,3.264099E0,6.2630634E2,2.000414E0,1.3261798E2,3.217244E3,1.3950387E1,1.0134568E0,1.8070295E0,5.50968E0,8.953995E0,2.335005E0,3.721105E1,2.8521145E1,8.13007E0,4.9478634E1,1.0979201E1,3.9691148E0,2.8348398E0,3.756429E1,5.089063E0,4.9329596E0,3.1908833E1,2.0337706E1,3.21474E1,7.4637737E0,2.5963663E2,1.5232718E2,4.1470284E0,1.1113313E0,2.530915E0,4.507279E0,5.0961323E1,1.0740285E1,7.019112E0,1.2009982E0,2.0631006E0,6.2033276E2,5.9735894E0,2.745464E0,1.2987251E2,3.214908E3,2.335896E0,1.457928E0,1.2492459E1],"tree_param":{"num_deleted":"0","num_feature":"17","num_nodes":"91","size_leaf_vector":"1"}},{"base_weights":[-7.173868E-2,-9.1888136E-1,9.222153E-1,-1.009021E0,-3.0730787E-1,6.5096945E-1,1.0003899E0,-1.0225731E0,-6.435212E-1,2.2739166E-1,-7.461196E-1,-1.7158486E0,7.1421826E-1,5.7387275E-1,1.012704E0,-3.080191E-1,-8.167812E-1,-3.2831198E-1,-1.0040178E0,-3.091768E-1,5.117718E-1,-9.1533005E-1,2.31461E-2,-3.2920313E-1,-2.103971E0,-1.5441892E-1,7.841486E-1,7.5005496E-1,-1.8143733E0,-2.7371895E-1,1.0140464E0,2.8789935E-1,-3.0481184E-1,1.1720733E-1,-3.0950215E-1,-1.1453568E0,6.54862E-2,7.025197E-1,-2.9766014E-1,-2.0332694E-1,-3.09122E-1,-4.0928143E-1,3.757955E-1,-2.4995357E-1,-6.7639583E-1,-2.043454E0,2.119638E-1,8.256475E-1,-3.7568632E-1,-2.343329E-1,8.824744E-1,3.797371E-2,-7.726648E-1,1.0152677E0,-2.7596223E-1,-2.5338358E-1,2.3310004E-1,-2.1064547E-1,1.8029258E-1,-3.0640382E-1,-4.4257197E-1,2.6463744E-1,-2.431954E-1,2.5279433E-1,-3.2575676E-1,-3.2029775E-1,1.5532328E-1,-2.7931753E-1,1.7293036E-1,-1.8445167E-1,-6.7757404E-1,1.4434093E-1,-5.3880525E-1,-3.7141323E-1,2.531558E-1,-5.186444E-1,1.323464E-1,-7.8551257E-1,1.3323845E-1,-6.891093E-2,2.846777E-1,2.1700706E-1,3.0770028E-1],"categories":[],"categories_nodes":[],"categories_segments":[],"categories_sizes":[],"default_left":[0,0,0,0,0,0,0,0,0,0,0,0,0,0,0,0,0,0,0,0,0,0,0,0,0,0,0,0,0,0,0,0,0,0,0,0,0,0,0,0,0,0,0,0,0,0,0,0,0,0,0,0,0,0,0,0,0,0,0,0,0,0,0,0,0,0,0,0,0,0,0,0,0,0,0,0,0,0,0,0,0,0,0],"id":8,"left_children":[1,3,5,7,9,11,13,15,17,19,21,23,25,27,29,-1,31,33,35,-1,37,39,41,-1,43,45,47,49,51,-1,53,55,-1,57,-1,59,61,63,-1,65,-1,-1,67,-1,-1,69,71,73,75,77,79,-1,-1,81,-1,-1,-1,-1,-1,-1,-1,-1,-1,-1,-1,-1,-1,-1,-1,-1,-1,-1,-1,-1,-1,-1,-1,-1,-1,-1,-1,-1,-1],"loss_changes":[5.7651597E3,2.0345874E2,6.615259E1,1.5297119E1,1.1191531E2,1.071676E2,1.2253662E1,1.8168945E0,1.3063072E1,7.760018E1,3.4101395E1,2.1835594E0,4.2033875E1,3.1185709E1,7.060547E0,0E0,1.4898701E1,2.029065E1,8.312553E0,0E0,5.1298546E1,1.7376648E1,2.4086761E1,0E0,1.1449051E-1,3.6592342E1,3.1054169E1,8.90387E0,7.952755E0,0E0,6.537842E0,6.704612E0,0E0,1.6397509E1,0E0,4.6458817E-1,5.943132E0,4.02891E1,0E0,1.9941555E1,0E0,0E0,1.0815479E1,0E0,0E0,1.2485352E0,2.5004711E1,2.4225098E1,2.5910355E1,1.5236796E1,4.579788E0,0E0,0E0,6.458008E0,0E0,0E0,0E0,0E0,0E0,0E0,0E0,0E0,0E0,0E0,0E0,0E0,0E0,0E0,0E0,0E0,0E0,0E0,0E0,0E0,0E0,0E0,0E0,0E0,0E0,0E0,0E0,0E0,0E0],"parents":[2147483647,0,0,1,1,2,2,3,3,4,4,5,5,6,6,7,7,8,8,9,9,10,10,11,11,12,12,13,13,14,14,16,16,17,17,18,18,20,20,21,21,22,22,24,24,25,25,26,26,27,27,28,28,30,30,31,31,33,33,35,35,36,36,37,37,39,39,42,42,45,45,46,46,47,47,48,48,49,49,50,50,53,53],"right_children":[2,4,6,8,10,12,14,16,18,20,22,24,26,28,30,-1,32,34,36,-1,38,40,42,-1,44,46,48,50,52,-1,54,56,-1,58,-1,60,62,64,-1,66,-1,-1,68,-1,-1,70,72,74,76,78,80,-1,-1,82,-1,-1,-1,-1,-1,-1,-1,-1,-1,-1,-1,-1,-1,-1,-1,-1,-1,-1,-1,-1,-1,-1,-1,-1,-1,-1,-1,-1,-1],"split_conditions":[4.0793374E-2,4.5449408E2,8.51543E-1,1.550771E-3,4.814751E2,1.7771643E2,1.3411532E-1,4.3420087E2,1.2331072E0,6.706145E1,1.1806677E-3,2.5141364E-1,1.3918227E-1,1.050609E1,1.8326251E-1,-3.080191E-1,1.0810077E0,3.7255862E0,2.6844759E1,-3.091768E-1,4.0075254E0,1.9764296E0,1.6125547E0,-3.2920313E-1,5.0013084E0,8.9805374E1,7.764172E0,9.147622E-1,2.1233964E-1,-2.7371895E-1,2.0412754E1,1.0492849E1,-3.0481184E-1,3.077182E2,-3.0950215E-1,1.7803222E-2,1.8916797E2,1.1918118E0,-2.9766014E-1,5.122898E1,-3.09122E-1,-4.0928143E-1,6.6813034E1,-2.4995357E-1,-6.7639583E-1,5.068927E0,9.275068E0,4.597592E0,1.023711E0,7.3954216E1,6.372796E-1,3.797371E-2,-7.726648E-1,5.711168E0,-2.7596223E-1,-2.5338358E-1,2.3310004E-1,-2.1064547E-1,1.8029258E-1,-3.0640382E-1,-4.4257197E-1,2.6463744E-1,-2.431954E-1,2.5279433E-1,-3.2575676E-1,-3.2029775E-1,1.5532328E-1,-2.7931753E-1,1.7293036E-1,-1.8445167E-1,-6.7757404E-1,1.4434093E-1,-5.3880525E-1,-3.7141323E-1,2.531558E-1,-5.186444E-1,1.323464E-1,-7.8551257E-1,1.3323845E-1,-6.891093E-2,2.846777E-1,2.1700706E-1,3.0770028E-1],"split_indices":[16,4,16,16,4,4,8,4,5,15,16,16,8,2,7,0,9,0,0,0,0,3,2,0,13,15,0,16,7,0,0,13,0,4,0,16,4,6,0,2,0,0,15,0,0,13,13,13,1,15,6,0,0,13,0,0,0,0,0,0,0,0,0,0,0,0,0,0,0,0,0,0,0,0,0,0,0,0,0,0,0,0,0],"split_type":[0,0,0,0,0,0,0,0,0,0,0,0,0,0,0,0,0,0,0,0,0,0,0,0,0,0,0,0,0,0,0,0,0,0,0,0,0,0,0,0,0,0,0,0,0,0,0,0,0,0,0,0,0,0,0,0,0,0,0,0,0,0,0,0,0,0,0,0,0,0,0,0,0,0,0,0,0,0,0,0,0,0,0],"sum_hessian":[6.844807E3,3.6953508E3,3.1494563E3,3.2200928E3,4.7525824E2,7.0670355E2,2.4427527E3,3.1032322E3,1.1686043E2,2.1444058E2,2.6081766E2,1.7713734E1,6.889898E2,6.988216E1,2.3728706E3,3.0378757E3,6.535662E1,6.3365738E1,5.3494686E1,3.9054684E1,1.753859E2,2.1363571E2,4.7181934E1,8.305519E0,9.408214E0,5.1244896E1,6.3774493E2,6.57199E1,4.162254E0,1.1806396E0,2.37169E3,9.919329E0,5.5437298E1,3.9303627E1,2.4062113E1,4.7187733E1,6.306955E0,1.561184E2,1.9267513E1,3.0109398E1,1.8352632E2,8.980723E0,3.820121E1,1.6894473E0,7.718766E0,7.5809336E0,4.3663963E1,6.1599286E2,2.1752096E1,7.70113E0,5.8018772E1,1.4073366E0,2.7549171E0,2.3706677E3,1.0221208E0,2.7725744E0,7.146754E0,1.4423347E1,2.488028E1,3.7272293E1,9.915437E0,3.2607813E0,3.0461738E0,1.4526498E2,1.0853403E1,1.3475707E1,1.6633692E1,4.599844E0,3.3601368E1,1.4970856E0,6.083848E0,3.9173138E1,4.490824E0,4.800635E0,6.111922E2,7.767866E0,1.398423E1,1.0726529E0,6.628477E0,3.1325972E0,5.4886177E1,8.398053E1,2.2866873E3],"tree_param":{"num_deleted":"0","num_feature":"17","num_nodes":"83","size_leaf_vector":"1"}},{"base_weights":[-7.052439E-2,-8.998149E-1,8.793336E-1,-9.947075E-1,-2.754547E-1,6.139069E-1,9.71661E-1,-1.0126656E0,-5.750595E-1,2.2824734E-1,-7.0827955E-1,-1.5735811E0,6.7839205E-1,9.777606E-1,6.500517E-2,-3.052832E-1,-8.011429E-1,-3.1937532E-2,-7.895309E-1,6.4044774E-1,-5.036339E-1,-9.064917E-1,1.5311748E-2,-1.7014127E0,-5.2276605E-1,-1.7954008E-1,7.490588E-1,3.304999E-1,9.864996E-1,-5.2625847E-1,5.946905E-1,-3.0270362E-1,2.0432757E-1,7.852524E-1,-3.3530468E-1,-1.2739594E-1,-9.698089E-1,8.222519E-1,-2.847196E-1,-9.0482026E-1,6.5957355E-1,-1.0171766E0,-3.3106738E-1,4.9882436E-1,-3.2751578E-1,-4.1487345E-1,-8.142731E-1,-2.682267E-1,5.2761916E-2,-1.8820724E0,1.246244E-1,4.6008345E-1,9.0616184E-1,-1.217515E0,7.7561826E-1,-3.1877604E-1,9.8871267E-1,8.501094E-1,-2.7575943E-1,2.2549574E-1,-2.4174567E-1,3.5843295E-1,-2.5600326E-1,-2.9069644E-1,1.01048656E-1,-3.1947124E-1,-5.4189157E-2,-3.777824E-1,2.7263045E-1,-8.010658E-2,-3.426826E-1,-2.2819076E-1,2.7691475E-1,-3.0199574E-2,-3.071247E-1,-3.75994E-1,-2.3878135E-3,-3.1544834E-1,2.4098313E-1,-3.355382E-1,-8.179803E-1,-4.4869876E-1,1.04046494E-1,-8.00095E-1,1.5842122E-1,-3.8514102E-1,2.7593878E-1,-2.1529092E-1,2.853534E-1,1.380963E-1,2.9908705E-1,3.6289357E-2,2.7723897E-1],"categories":[],"categories_nodes":[],"categories_segments":[],"categories_sizes":[],"default_left":[0,0,0,0,0,0,0,0,0,0,0,0,0,0,0,0,0,0,0,0,0,0,0,0,0,0,0,0,0,0,0,0,0,0,0,0,0,0,0,0,0,0,0,0,0,0,0,0,0,0,0,0,0,0,0,0,0,0,0,0,0,0,0,0,0,0,0,0,0,0,0,0,0,0,0,0,0,0,0,0,0,0,0,0,0,0,0,0,0,0,0,0,0],"id":9,"left_children":[1,3,5,7,9,11,13,15,17,19,21,23,25,27,29,-1,31,33,35,37,39,41,43,45,47,49,51,53,55,-1,57,-1,59,61,-1,63,65,67,-1,69,71,73,75,77,-1,-1,-1,-1,-1,79,81,83,85,-1,87,-1,89,91,-1,-1,-1,-1,-1,-1,-1,-1,-1,-1,-1,-1,-1,-1,-1,-1,-1,-1,-1,-1,-1,-1,-1,-1,-1,-1,-1,-1,-1,-1,-1,-1,-1,-1,-1],"loss_changes":[4.126084E3,1.6540991E2,5.9237427E1,1.770874E1,8.089896E1,9.0334854E1,9.944946E0,1.6179199E0,1.1846561E1,5.218394E1,2.8615875E1,1.5851822E0,3.7445038E1,9.842041E0,1.3729308E1,0E0,1.2295353E1,2.740191E1,8.593082E0,3.268705E1,2.976149E1,9.634537E0,2.4023573E1,1.4016418E0,1.0500547E0,2.490466E1,2.5404572E1,5.286788E1,9.091309E0,0E0,5.0129123E0,0E0,6.544133E0,1.285953E1,0E0,6.881457E0,4.103691E0,1.908358E1,0E0,6.796528E0,6.9157095E0,6.849365E-1,7.9577885E0,1.5578712E1,0E0,0E0,0E0,0E0,0E0,1.6471825E0,1.5408012E1,4.442695E1,1.2151367E1,0E0,6.9604044E0,0E0,7.259033E0,4.2161465E-1,0E0,0E0,0E0,0E0,0E0,0E0,0E0,0E0,0E0,0E0,0E0,0E0,0E0,0E0,0E0,0E0,0E0,0E0,0E0,0E0,0E0,0E0,0E0,0E0,0E0,0E0,0E0,0E0,0E0,0E0,0E0,0E0,0E0,0E0,0E0],"parents":[2147483647,0,0,1,1,2,2,3,3,4,4,5,5,6,6,7,7,8,8,9,9,10,10,11,11,12,12,13,13,14,14,16,16,17,17,18,18,19,19,20,20,21,21,22,22,23,23,24,24,25,25,26,26,27,27,28,28,30,30,32,32,33,33,35,35,36,36,37,37,39,39,40,40,41,41,42,42,43,43,49,49,50,50,51,51,52,52,54,54,56,56,57,57],"right_children":[2,4,6,8,10,12,14,16,18,20,22,24,26,28,30,-1,32,34,36,38,40,42,44,46,48,50,52,54,56,-1,58,-1,60,62,-1,64,66,68,-1,70,72,74,76,78,-1,-1,-1,-1,-1,80,82,84,86,-1,88,-1,90,92,-1,-1,-1,-1,-1,-1,-1,-1,-1,-1,-1,-1,-1,-1,-1,-1,-1,-1,-1,-1,-1,-1,-1,-1,-1,-1,-1,-1,-1,-1,-1,-1,-1,-1,-1],"split_conditions":[4.0793374E-2,4.5746957E2,8.9771944E-1,1.550771E-3,4.814751E2,1.7954811E2,8.911804E1,4.3420087E2,1.0971164E0,1.9945387E0,4.1949692E-1,1.1533674E1,5.400786E0,3.9226475E1,1.5436073E-1,-3.052832E-1,5.2454334E-1,2.2401752E0,2.498688E0,4.0075254E0,5.701246E-1,1.1806677E-3,5.1514215E2,7.090881E-1,1.5180891E2,1.3918227E-1,4.068922E2,2.8141055E2,1.8008034E-1,-5.2625847E-1,4.226671E-1,-3.0270362E-1,1.095307E0,1.4434624E0,-3.3530468E-1,1.928556E0,2.949276E0,6.085798E0,-2.847196E-1,4.6215265E2,1.2592275E1,5.722937E-1,1.6125547E0,9.029547E0,-3.2751578E-1,-4.1487345E-1,-8.142731E-1,-2.682267E-1,5.2761916E-2,3.1272298E-1,2.955882E2,5.609449E-1,3.181508E1,-1.217515E0,1.9710515E0,-3.1877604E-1,3.5752416E-1,1.131176E0,-2.7575943E-1,2.2549574E-1,-2.4174567E-1,3.5843295E-1,-2.5600326E-1,-2.9069644E-1,1.01048656E-1,-3.1947124E-1,-5.4189157E-2,-3.777824E-1,2.7263045E-1,-8.010658E-2,-3.426826E-1,-2.2819076E-1,2.7691475E-1,-3.0199574E-2,-3.071247E-1,-3.75994E-1,-2.3878135E-3,-3.1544834E-1,2.4098313E-1,-3.355382E-1,-8.179803E-1,-4.4869876E-1,1.04046494E-1,-8.00095E-1,1.5842122E-1,-3.8514102E-1,2.7593878E-1,-2.1529092E-1,2.853534E-1,1.380963E-1,2.9908705E-1,3.6289357E-2,2.7723897E-1],"split_indices":[16,4,16,16,4,4,2,4,0,1,8,0,13,15,8,0,8,1,3,0,8,16,4,16,4,8,4,4,7,0,7,0,9,9,0,3,9,10,0,4,13,5,2,13,0,0,0,0,0,16,4,0,15,0,0,0,0,9,0,0,0,0,0,0,0,0,0,0,0,0,0,0,0,0,0,0,0,0,0,0,0,0,0,0,0,0,0,0,0,0,0,0,0],"split_type":[0,0,0,0,0,0,0,0,0,0,0,0,0,0,0,0,0,0,0,0,0,0,0,0,0,0,0,0,0,0,0,0,0,0,0,0,0,0,0,0,0,0,0,0,0,0,0,0,0,0,0,0,0,0,0,0,0,0,0,0,0,0,0,0,0,0,0,0,0,0,0,0,0,0,0,0,0,0,0,0,0,0,0,0,0,0,0,0,0,0,0,0,0],"sum_hessian":[5.236082E3,2.7954858E3,2.4405962E3,2.4261562E3,3.693295E2,6.318308E2,1.8087654E3,2.3252388E3,1.0091755E2,1.7090761E2,1.9842189E2,1.7422308E1,6.144085E2,1.7966001E3,1.2165275E1,2.2683975E3,5.684126E1,2.8894571E1,7.202297E1,1.0941134E2,6.1496265E1,1.5555753E2,4.2864372E1,1.4980762E1,2.4415462E0,4.6639496E1,5.67769E2,2.4450872E1,1.7721492E3,2.222015E0,9.943259E0,4.7100307E1,9.74095E0,1.6644093E1,1.2250478E1,1.5778286E1,5.624469E1,9.861475E1,1.0796586E1,4.5890812E1,1.5605455E1,1.2981871E2,2.5738808E1,3.0216333E1,1.2648039E1,1.3196345E1,1.7844155E0,1.4115545E0,1.0299917E0,6.2830467E0,4.035645E1,2.0134453E2,3.6642447E2,1.5039855E0,2.2946886E1,1.394966E0,1.7707543E3,8.883005E0,1.0602549E0,6.4837666E0,3.2571836E0,1.35327835E1,3.111309E0,5.222714E0,1.05555725E1,4.9884296E1,6.36039E0,3.3943117E0,9.522044E1,1.3026493E1,3.286432E1,2.1467774E0,1.3458678E1,1.040481E0,1.2877823E2,5.931012E0,1.9807796E1,4.5571127E0,2.5659222E1,4.5202527E0,1.7627941E0,4.175681E0,3.6180767E1,3.4709487E0,1.9787358E2,1.6907154E0,3.6473376E2,2.0891907E0,2.0857695E1,2.8076324E1,1.742678E3,1.0614367E0,7.821568E0],"tree_param":{"num_deleted":"0","num_feature":"17","num_nodes":"93","size_leaf_vector":"1"}},{"base_weights":[-6.8866625E-2,-8.8150173E-1,8.334136E-1,-9.843113E-1,-2.5767493E-1,5.0084513E-1,9.4417703E-1,-1.0048879E0,-5.7941127E-1,1.08998895E-1,-8.3391494E-1,8.751832E-2,8.1126386E-1,3.3168173E-1,9.5833606E-1,-3.03163E-1,-7.696496E-1,-2.4905631E-1,-9.3819475E-1,3.2242352E-1,-2.9607192E-1,5.3376836E-1,-9.761842E-1,2.211234E-1,-1.4549345E0,-7.465058E-1,8.387665E-1,-9.26956E-1,5.32253E-1,9.621439E-1,-1.0574453E0,-2.9902813E-1,1.855948E-1,-8.936945E-1,2.6211035E-1,1.9009234E-1,-1.013127E0,-3.0453247E-1,5.478099E-1,8.996109E-1,-2.1570538E-1,-3.0785456E-1,1.6356187E-2,-4.1456226E-1,3.3644748E-1,-3.1183217E0,-3.5479736E-1,-1.0585992E0,8.853984E-1,-8.4058994E-1,7.089717E-1,5.969823E-1,9.782355E-1,-7.173498E-2,-4.0243486E-1,-2.527107E-1,2.1116833E-1,-1.313108E-1,-3.0652004E-1,7.431456E-1,-6.861587E-2,-2.216544E-1,-3.7012702E-1,-3.3938965E-1,1.9468592E-1,6.8459935E-2,2.8613263E-1,1.993786E-1,-4.8665366E-1,1.3529904E-1,-3.0619034E-1,-3.1885654E-1,-1.1430881E0,-4.5332888E-1,1.0464867E-1,-5.1834434E-1,1.1699584E-1,2.735394E-1,-3.029658E-2,-7.1576744E-1,1.8156812E-1,2.4490729E-1,-2.3826048E-1,-5.2266276E-1,2.1847695E-1,1.295803E-1,2.961416E-1],"categories":[],"categories_nodes":[],"categories_segments":[],"categories_sizes":[],"default_left":[0,0,0,0,0,0,0,0,0,0,0,0,0,0,0,0,0,0,0,0,0,0,0,0,0,0,0,0,0,0,0,0,0,0,0,0,0,0,0,0,0,0,0,0,0,0,0,0,0,0,0,0,0,0,0,0,0,0,0,0,0,0,0,0,0,0,0,0,0,0,0,0,0,0,0,0,0,0,0,0,0,0,0,0,0,0,0],"id":10,"left_children":[1,3,5,7,9,11,13,15,17,19,21,23,25,27,29,-1,31,33,35,37,-1,39,41,43,45,-1,47,-1,49,51,53,-1,55,57,59,-1,61,-1,63,65,-1,-1,67,-1,69,71,73,75,77,79,81,83,85,-1,-1,-1,-1,-1,-1,-1,-1,-1,-1,-1,-1,-1,-1,-1,-1,-1,-1,-1,-1,-1,-1,-1,-1,-1,-1,-1,-1,-1,-1,-1,-1,-1,-1],"loss_changes":[2.9446726E3,1.3526135E2,6.963049E1,1.4528076E1,6.3544037E1,6.120797E1,1.2053223E1,1.5164795E0,1.0442209E1,4.3450893E1,2.3267014E1,4.2767723E1,2.6828506E1,2.481313E1,1.1715454E1,0E0,9.878496E0,1.613521E1,5.6849747E0,4.731456E1,0E0,5.9912233E0,5.288765E0,3.5666492E1,2.918032E1,0E0,2.4926361E1,0E0,8.539903E0,7.5931396E0,4.006865E-1,0E0,5.6148453E0,8.120365E-1,3.0668234E1,0E0,1.5848465E0,0E0,2.3387466E1,1.2671852E-1,0E0,0E0,7.535187E0,0E0,2.819975E1,5.1387787E0,9.550186E0,7.420224E0,6.9972076E0,1.08094425E1,5.4186764E0,2.0093256E1,6.04895E0,0E0,0E0,0E0,0E0,0E0,0E0,0E0,0E0,0E0,0E0,0E0,0E0,0E0,0E0,0E0,0E0,0E0,0E0,0E0,0E0,0E0,0E0,0E0,0E0,0E0,0E0,0E0,0E0,0E0,0E0,0E0,0E0,0E0,0E0],"parents":[2147483647,0,0,1,1,2,2,3,3,4,4,5,5,6,6,7,7,8,8,9,9,10,10,11,11,12,12,13,13,14,14,16,16,17,17,18,18,19,19,21,21,22,22,23,23,24,24,26,26,28,28,29,29,30,30,32,32,33,33,34,34,36,36,38,38,39,39,42,42,44,44,45,45,46,46,47,47,48,48,49,49,50,50,51,51,52,52],"right_children":[2,4,6,8,10,12,14,16,18,20,22,24,26,28,30,-1,32,34,36,38,-1,40,42,44,46,-1,48,-1,50,52,54,-1,56,58,60,-1,62,-1,64,66,-1,-1,68,-1,70,72,74,76,78,80,82,84,86,-1,-1,-1,-1,-1,-1,-1,-1,-1,-1,-1,-1,-1,-1,-1,-1,-1,-1,-1,-1,-1,-1,-1,-1,-1,-1,-1,-1,-1,-1,-1,-1,-1,-1],"split_conditions":[4.0793374E-2,4.5746957E2,8.51543E-1,1.1806677E-3,1.5959463E0,4.2018854E2,2.1754514E-1,4.3420087E2,8E0,3.9408402E0,8.2158583E-1,1.293384E1,7.298103E-1,1.8524295E2,1.627209E1,-3.03163E-1,5.2454334E-1,5.0891533E0,9.713395E-2,6.618934E1,-2.9607192E-1,4.697595E2,1.7803222E-2,1.7771643E2,2.4441392E0,-7.465058E-1,5.17791E0,-9.26956E-1,5.9492016E0,5.753569E0,2.2739948E1,-2.9902813E-1,1.0572831E1,4.4459686E0,5.996228E0,1.9009234E-1,1E1,-3.0453247E-1,2.1825477E-1,9.152547E0,-2.1570538E-1,-3.0785456E-1,1.4582989E0,-4.1456226E-1,3.742232E2,1.9854979E2,2.8675458E2,2.9510316E-1,9.96744E-1,6.5132656E0,1.8024498E0,5.360373E-1,4.0005764E1,-7.173498E-2,-4.0243486E-1,-2.527107E-1,2.1116833E-1,-1.313108E-1,-3.0652004E-1,7.431456E-1,-6.861587E-2,-2.216544E-1,-3.7012702E-1,-3.3938965E-1,1.9468592E-1,6.8459935E-2,2.8613263E-1,1.993786E-1,-4.8665366E-1,1.3529904E-1,-3.0619034E-1,-3.1885654E-1,-1.1430881E0,-4.5332888E-1,1.0464867E-1,-5.1834434E-1,1.1699584E-1,2.735394E-1,-3.029658E-2,-7.1576744E-1,1.8156812E-1,2.4490729E-1,-2.3826048E-1,-5.2266276E-1,2.1847695E-1,1.295803E-1,2.961416E-1],"split_indices":[16,4,16,16,5,4,7,4,10,0,2,13,2,4,0,0,8,10,12,15,0,4,16,4,0,0,13,0,13,13,0,0,13,3,10,0,10,0,7,10,0,0,9,0,4,4,4,8,12,0,6,0,15,0,0,0,0,0,0,0,0,0,0,0,0,0,0,0,0,0,0,0,0,0,0,0,0,0,0,0,0,0,0,0,0,0,0],"split_type":[0,0,0,0,0,0,0,0,0,0,0,0,0,0,0,0,0,0,0,0,0,0,0,0,0,0,0,0,0,0,0,0,0,0,0,0,0,0,0,0,0,0,0,0,0,0,0,0,0,0,0,0,0,0,0,0,0,0,0,0,0,0,0,0,0,0,0,0,0,0,0,0,0,0,0,0,0,0,0,0,0,0,0,0,0,0,0],"sum_hessian":[4.014056E3,2.111955E3,1.902101E3,1.812645E3,2.9931003E2,4.766062E2,1.4254948E3,1.723573E3,8.907209E1,1.8341194E2,1.1589809E2,2.0496904E2,2.7163715E2,3.2760513E1,1.3927343E3,1.6798914E3,4.3681583E1,4.7255283E1,4.181681E1,1.54106E2,2.9305939E1,1.0660756E1,1.0523733E2,1.8941852E2,1.5550522E1,1.5057771E0,2.7013138E2,1.0164075E0,3.1744106E1,1.39063E3,2.1042252E0,3.5255962E1,8.425619E0,2.0568176E1,2.6687107E1,1.5634974E0,4.025331E1,2.1718138E1,1.3238786E2,8.469406E0,2.1913502E0,1.00158134E2,5.0791965E0,1.1975619E1,1.774429E2,5.460246E0,1.0090276E1,5.959247E0,2.6417212E2,3.1918087E0,2.8552298E1,6.0302486E1,1.3303275E3,1.0166891E0,1.0875361E0,2.6146426E0,5.8109765E0,5.477911E0,1.5090265E1,4.106813E0,2.2580296E1,1.9883574E1,2.036974E1,6.942821E0,1.2544504E2,1.0214036E0,7.4480023E0,4.065282E0,1.0139148E0,1.6424675E2,1.31961565E1,2.0139356E0,3.4463103E0,3.3831E0,6.7071757E0,3.9443038E0,2.0149434E0,2.573598E2,6.812337E0,1.228536E0,1.9632727E0,2.7074984E1,1.4773135E0,2.5522397E0,5.7750248E1,2.2126833E1,1.3082007E3],"tree_param":{"num_deleted":"0","num_feature":"17","num_nodes":"87","size_leaf_vector":"1"}},{"base_weights":[-7.5714394E-2,-9.3151987E-1,7.010021E-1,-9.9918485E-1,-4.750988E-1,9.151691E-2,8.460052E-1,-3.0159524E-1,-7.767951E-1,-2.0379117E-1,-3.018085E-1,-1.0005575E0,2.5058347E-1,-1.1640915E-1,8.703272E-1,1.5002376E-1,-9.274638E-1,-3.006568E-1,7.935717E-2,1.2997413E-1,-1.331993E0,-5.619704E-1,4.371168E-1,-1.9123032E0,1.9309168E-1,-2.702697E-2,8.941305E-1,-2.1317078E-1,6.4469653E-1,1.3887736E-1,-2.9584655E-1,9.583029E-1,-1.9100803E-1,-2.952156E-1,2.6037508E-1,-7.0074064E-1,-1.48808E0,5.5114716E-1,-8.4418577E-1,5.225521E-1,-3.2967937E-1,-7.876685E-1,-1.3540198E-2,-8.5712415E-1,5.113178E-1,5.5421096E-1,-1.4446386E0,4.1778177E-1,9.2955005E-1,2.3311031E-1,3.0560838E-2,3.0288535E-1,1.452799E-3,1.3205926E-1,-3.143106E-1,-2.8566158E-1,1.5581103E-1,-3.212817E-1,-6.608819E-1,-2.4033763E-1,2.8959236E-1,-3.8283148E-1,1.0166865E-1,2.2300541E-1,1.8418783E-2,-5.5909014E-1,2.2641471E-1,2.0346162E-1,-3.250415E-1,2.339421E-1,-2.8967732E-1,-6.9616085E-1,8.211546E-2,-1.3392663E0,1.9430518E-1,-3.7677735E-1,2.7986795E-1],"categories":[],"categories_nodes":[],"categories_segments":[],"categories_sizes":[],"default_left":[0,0,0,0,0,0,0,0,0,0,0,0,0,0,0,0,0,0,0,0,0,0,0,0,0,0,0,0,0,0,0,0,0,0,0,0,0,0,0,0,0,0,0,0,0,0,0,0,0,0,0,0,0,0,0,0,0,0,0,0,0,0,0,0,0,0,0,0,0,0,0,0,0,0,0,0,0],"id":11,"left_children":[1,3,5,7,9,11,13,-1,15,17,-1,19,21,23,25,27,29,-1,31,33,35,37,39,41,43,45,47,-1,49,-1,-1,51,53,-1,-1,55,57,59,61,63,-1,-1,-1,65,67,69,71,73,75,-1,-1,-1,-1,-1,-1,-1,-1,-1,-1,-1,-1,-1,-1,-1,-1,-1,-1,-1,-1,-1,-1,-1,-1,-1,-1,-1,-1],"loss_changes":[2.059577E3,4.5051636E1,1.434754E2,9.6875E-1,2.7484898E1,5.467396E1,3.0812927E1,0E0,5.5609894E0,2.9123127E1,0E0,1.51729355E1,4.181527E1,1.8835047E1,2.7360779E1,3.1358368E0,3.193222E0,0E0,2.2940655E1,9.063847E0,2.0161362E0,1.6688492E1,2.9920448E1,6.507698E0,1.0212626E1,2.8849924E1,2.0646973E1,0E0,2.454344E-1,0E0,0E0,1.1054745E0,4.051569E1,0E0,0E0,2.9627495E0,4.797703E0,6.9621105E0,2.1686417E1,2.1593258E1,0E0,0E0,0E0,1.3046455E1,6.87536E0,9.278409E0,1.5951281E1,1.017787E2,9.64447E0,0E0,0E0,0E0,0E0,0E0,0E0,0E0,0E0,0E0,0E0,0E0,0E0,0E0,0E0,0E0,0E0,0E0,0E0,0E0,0E0,0E0,0E0,0E0,0E0,0E0,0E0,0E0,0E0],"parents":[2147483647,0,0,1,1,2,2,3,3,4,4,5,5,6,6,8,8,9,9,11,11,12,12,13,13,14,14,15,15,16,16,18,18,19,19,20,20,21,21,22,22,23,23,24,24,25,25,26,26,28,28,31,31,32,32,35,35,36,36,37,37,38,38,39,39,43,43,44,44,45,45,46,46,47,47,48,48],"right_children":[2,4,6,8,10,12,14,-1,16,18,-1,20,22,24,26,28,30,-1,32,34,36,38,40,42,44,46,48,-1,50,-1,-1,52,54,-1,-1,56,58,60,62,64,-1,-1,-1,66,68,70,72,74,76,-1,-1,-1,-1,-1,-1,-1,-1,-1,-1,-1,-1,-1,-1,-1,-1,-1,-1,-1,-1,-1,-1,-1,-1,-1,-1,-1,-1],"split_conditions":[1.550771E-3,4.5147467E2,3.75883E-1,4.2456497E2,3.2377338E0,6.2630245E1,2.1554594E-1,-3.0159524E-1,1.0712385E0,6.6813034E1,-3.018085E-1,1E0,3.002337E2,2.7648602E2,1.2861055E-1,1.083118E0,4.100414E-1,-3.006568E-1,6.770931E1,4.662207E2,1.759669E0,3.45885E-1,5.714777E0,1.4978806E0,8.2210475E-1,2.3640008E0,6.835058E-1,-2.1317078E-1,1.1722953E0,1.3887736E-1,-2.9584655E-1,2.1236045E0,4.697595E2,-2.952156E-1,2.6037508E-1,1.023711E0,8.778624E-2,2.2949716E2,2.4146285E0,3E0,-3.2967937E-1,-7.876685E-1,-1.3540198E-2,5.271989E2,4.2604617E2,2.5195658E0,4.739577E2,6.555865E1,4.5941693E-1,2.3311031E-1,3.0560838E-2,3.0288535E-1,1.452799E-3,1.3205926E-1,-3.143106E-1,-2.8566158E-1,1.5581103E-1,-3.212817E-1,-6.608819E-1,-2.4033763E-1,2.8959236E-1,-3.8283148E-1,1.0166865E-1,2.2300541E-1,1.8418783E-2,-5.5909014E-1,2.2641471E-1,2.0346162E-1,-3.250415E-1,2.339421E-1,-2.8967732E-1,-6.9616085E-1,8.211546E-2,-1.3392663E0,1.9430518E-1,-3.7677735E-1,2.7986795E-1],"split_indices":[16,4,16,4,0,15,7,0,9,15,0,1,4,4,8,6,0,0,15,4,1,12,0,9,16,0,0,0,5,0,0,3,4,0,0,1,16,4,9,1,0,0,0,4,4,2,4,15,6,0,0,0,0,0,0,0,0,0,0,0,0,0,0,0,0,0,0,0,0,0,0,0,0,0,0,0,0],"split_type":[0,0,0,0,0,0,0,0,0,0,0,0,0,0,0,0,0,0,0,0,0,0,0,0,0,0,0,0,0,0,0,0,0,0,0,0,0,0,0,0,0,0,0,0,0,0,0,0,0,0,0,0,0,0,0,0,0,0,0,0,0,0,0,0,0,0,0,0,0,0,0,0,0,0,0,0,0],"sum_hessian":[3.0964387E3,1.4731198E3,1.6233191E3,1.281889E3,1.9123071E2,3.1229483E2,1.3110243E3,1.2440624E3,3.782658E1,1.27474464E2,6.375625E1,3.903171E1,2.7326312E2,3.222198E1,1.2788022E3,5.2900167E0,3.253656E1,3.2707928E1,9.476654E1,8.986493E0,3.004522E1,5.0643475E1,2.2261966E2,3.9754667E0,2.8246513E1,3.3041656E1,1.2457606E3,1.7715572E0,3.5184596E0,1.0388532E0,3.1497707E1,2.1694422E1,7.307212E1,3.4479032E0,5.5385904E0,7.0446053E0,2.3000614E1,1.0050242E1,4.059323E1,2.1151495E2,1.11046915E1,2.5827022E0,1.3927647E0,6.1748185E0,2.2071695E1,2.3865547E1,9.176109E0,8.7104774E1,1.1586559E3,2.481924E0,1.0365354E0,2.0530575E1,1.1638478E0,4.235295E1,3.0719166E1,6.0228677E0,1.0217372E0,1.610247E1,6.8981433E0,2.1373296E0,7.9129124E0,2.967929E1,1.0913942E1,1.4261816E2,6.88968E1,3.7050152E0,2.4698033E0,2.0501085E1,1.5706097E0,2.120485E1,2.6606982E0,5.845861E0,3.3302484E0,3.0891137E0,8.4015656E1,1.1974133E0,1.1574584E3],"tree_param":{"num_deleted":"0","num_feature":"17","num_nodes":"77","size_leaf_vector":"1"}},{"base_weights":[-7.560681E-2,-9.1837287E-1,6.4905596E-1,-9.9402064E-1,-4.4831228E-1,2.5853398E-1,8.776696E-1,-3.0002132E-1,-7.715253E-1,1.0040691E-1,-7.242379E-1,-1.1318392E-1,5.6160545E-1,4.0942115E-1,9.1217107E-1,8.69845E-2,-8.981674E-1,-3.2714927E-1,5.265869E-1,-9.77567E-1,2.722589E-1,-3.072437E-2,-2.325251E0,-1.2026958E0,6.222045E-1,-1.1951632E0,5.241334E-1,9.432568E-1,4.1900596E-1,-1.8700892E-1,1.827967E-1,1.2746374E-1,-2.9189155E-1,7.7659833E-1,-8.063533E-1,-4.7660004E-2,-9.925148E-1,-2.7479175E-1,7.2947717E-1,-3.6355278E-1,9.068993E-2,-2.280995E-1,-2.9249892E0,-1.0531325E-1,-4.0044767E-1,6.866989E-1,-8.1675273E-1,1.1791499E-1,-7.3263216E-1,-5.1424354E-1,7.1708876E-1,1.1495722E-1,9.576155E-1,-1.2927277E0,6.8328434E-1,-1.7157121E-1,2.899337E-1,-2.617523E-1,-6.9044255E-2,-2.8711954E-2,-3.009297E-1,2.7766943E-1,-2.1618983E-1,-3.8944188E-1,5.803124E-2,-1.0390002E0,-1.2844841E-1,-2.9801887E-1,2.215953E-1,-7.1505076E-1,1.679919E-1,1.02513395E-1,-9.202278E-1,-2.648542E-1,2.3649935E-1,-7.0227456E-1,2.0700048E-1,2.9012275E-1,-3.788451E-2,-1.1322923E0,-1.10404E-2,2.3846477E-1,-2.924803E-1],"categories":[],"categories_nodes":[],"categories_segments":[],"categories_sizes":[],"default_left":[0,0,0,0,0,0,0,0,0,0,0,0,0,0,0,0,0,0,0,0,0,0,0,0,0,0,0,0,0,0,0,0,0,0,0,0,0,0,0,0,0,0,0,0,0,0,0,0,0,0,0,0,0,0,0,0,0,0,0,0,0,0,0,0,0,0,0,0,0,0,0,0,0,0,0,0,0,0,0,0,0,0,0],"id":12,"left_children":[1,3,5,7,9,11,13,-1,15,17,19,21,23,25,27,29,31,-1,33,35,37,39,41,43,45,47,49,51,53,-1,-1,-1,-1,55,57,-1,59,-1,61,-1,63,-1,65,-1,-1,67,69,-1,-1,71,73,75,77,79,81,-1,-1,-1,-1,-1,-1,-1,-1,-1,-1,-1,-1,-1,-1,-1,-1,-1,-1,-1,-1,-1,-1,-1,-1,-1,-1,-1,-1],"loss_changes":[1.469932E3,3.9121826E1,1.1531555E2,5.1763916E-1,2.370274E1,5.4058773E1,1.2807434E1,0E0,3.3102932E0,2.7524326E1,2.6512878E1,3.934602E1,2.8994263E1,1.1266378E1,1.124176E1,2.136081E0,2.9861164E0,0E0,1.3882759E1,8.594589E-1,1.254229E1,3.0130905E1,5.052185E0,5.5698776E-1,2.432602E1,9.201649E0,1.1317174E1,8.373169E0,2.2058712E1,0E0,0E0,0E0,0E0,9.258617E0,5.738592E-2,0E0,6.7697906E-1,0E0,5.3131866E0,0E0,2.7472511E1,0E0,5.5785522E0,0E0,0E0,2.2173897E1,2.6014545E1,0E0,0E0,2.1034325E1,5.996008E0,2.0384531E1,7.3100586E0,2.0450668E1,8.399792E0,0E0,0E0,0E0,0E0,0E0,0E0,0E0,0E0,0E0,0E0,0E0,0E0,0E0,0E0,0E0,0E0,0E0,0E0,0E0,0E0,0E0,0E0,0E0,0E0,0E0,0E0,0E0,0E0],"parents":[2147483647,0,0,1,1,2,2,3,3,4,4,5,5,6,6,8,8,9,9,10,10,11,11,12,12,13,13,14,14,15,15,16,16,18,18,19,19,20,20,21,21,22,22,23,23,24,24,25,25,26,26,27,27,28,28,33,33,34,34,36,36,38,38,40,40,42,42,45,45,46,46,49,49,50,50,51,51,52,52,53,53,54,54],"right_children":[2,4,6,8,10,12,14,-1,16,18,20,22,24,26,28,30,32,-1,34,36,38,40,42,44,46,48,50,52,54,-1,-1,-1,-1,56,58,-1,60,-1,62,-1,64,-1,66,-1,-1,68,70,-1,-1,72,74,76,78,80,82,-1,-1,-1,-1,-1,-1,-1,-1,-1,-1,-1,-1,-1,-1,-1,-1,-1,-1,-1,-1,-1,-1,-1,-1,-1,-1,-1,-1],"split_conditions":[1.550771E-3,4.5147467E2,8.9771944E-1,4.2456497E2,8.6141074E-1,4.0929276E2,6.0378785E0,-3.0002132E-1,1.0712385E0,6.085798E0,5.2454334E-1,1.3E1,5.068927E0,5.360373E-1,8.651532E0,6.1981613E1,3.5752416E-1,-3.2714927E-1,2.9773636E0,9.0644085E-1,1.2389473E1,1.7771643E2,1.7803222E-2,1.2434461E0,5.4107263E2,2.4590655E-1,9.7224325E-1,4.0005764E1,1.0740589E1,-1.8700892E-1,1.827967E-1,1.2746374E-1,-2.9189155E-1,4.7774997E-1,1.826806E0,-4.7660004E-2,4.1605622E-1,-2.7479175E-1,7.4872637E-1,-3.6355278E-1,7.494526E-1,-2.280995E-1,4.7277756E0,-1.0531325E-1,-4.0044767E-1,1.2360322E-1,2.8975006E1,1.1791499E-1,-7.3263216E-1,1.2437555E0,1.9852026E-1,1.0511216E0,1.3E1,2.6697498E2,9.999999E-1,-1.7157121E-1,2.899337E-1,-2.617523E-1,-6.9044255E-2,-2.8711954E-2,-3.009297E-1,2.7766943E-1,-2.1618983E-1,-3.8944188E-1,5.803124E-2,-1.0390002E0,-1.2844841E-1,-2.9801887E-1,2.215953E-1,-7.1505076E-1,1.679919E-1,1.02513395E-1,-9.202278E-1,-2.648542E-1,2.3649935E-1,-7.0227456E-1,2.0700048E-1,2.9012275E-1,-3.788451E-2,-1.1322923E0,-1.10404E-2,2.3846477E-1,-2.924803E-1],"split_indices":[16,4,16,4,0,4,13,0,9,10,8,10,13,0,2,2,0,0,1,0,13,4,16,9,4,8,16,15,13,0,0,0,0,12,9,0,6,0,7,0,0,0,2,0,0,8,2,0,0,5,7,0,10,4,16,0,0,0,0,0,0,0,0,0,0,0,0,0,0,0,0,0,0,0,0,0,0,0,0,0,0,0,0],"split_type":[0,0,0,0,0,0,0,0,0,0,0,0,0,0,0,0,0,0,0,0,0,0,0,0,0,0,0,0,0,0,0,0,0,0,0,0,0,0,0,0,0,0,0,0,0,0,0,0,0,0,0,0,0,0,0,0,0,0,0,0,0,0,0,0,0,0,0,0,0,0,0,0,0,0,0,0,0,0,0,0,0,0,0],"sum_hessian":[2.404903E3,1.1117251E3,1.2931779E3,9.566542E2,1.550709E2,4.7828818E2,8.148897E2,9.2792584E2,2.8728338E1,5.2099464E1,1.02971436E2,2.1509732E2,2.6319086E2,5.6805256E1,7.580845E2,3.7333052E0,2.4995033E1,1.3319918E1,3.8779545E1,8.211514E1,2.085629E1,2.0834471E2,6.752607E0,8.113872E0,2.5507698E2,3.1616473E0,5.3643612E1,7.1227496E2,4.58095E1,1.4999945E0,2.2333107E0,1.0871425E0,2.390789E1,3.300616E1,5.773384E0,1.6808656E0,8.043428E1,5.5165005E0,1.533979E1,1.858349E1,1.8976123E2,2.499178E0,4.253429E0,1.5808966E0,6.5329747E0,2.4463515E2,1.0441829E1,1.6917198E0,1.4699275E0,8.145268E0,4.549834E1,1.2290485E1,6.999845E2,5.6062465E0,4.0203255E1,3.8249273E0,2.9181234E1,4.7175336E0,1.0558505E0,1.0553554E0,7.937892E1,1.3831225E1,1.5085654E0,1.2270306E1,1.7749092E2,3.1805682E0,1.0728605E0,6.7941957E0,2.3784096E2,4.541827E0,5.9000015E0,6.748871E0,1.3963975E0,1.4539483E0,4.4044395E1,1.7492076E0,1.0541277E1,6.9403467E2,5.9498105E0,1.2100722E0,4.3961744E0,3.8155994E1,2.0472596E0],"tree_param":{"num_deleted":"0","num_feature":"17","num_nodes":"83","size_leaf_vector":"1"}},{"base_weights":[-7.935842E-2,-7.86947E-1,7.052455E-1,-9.2724276E-1,-1.8939348E-1,-6.1924323E-2,7.690952E-1,-9.870938E-1,-4.8121262E-1,3.3861178E-1,-4.3281996E-1,-1.5941678E0,1.0206621E-1,4.359113E-1,8.5757685E-1,-9.947582E-1,-7.4504817E-1,1.8864958E-1,-7.8013295E-1,8.594365E-1,-1.3309745E0,-6.549476E-1,3.0246922E-1,-1.0289351E0,-3.8947344E-1,-9.6156824E-1,2.5894955E-1,7.116569E-1,-2.7552348E-1,-2.4757104E-1,8.7559754E-1,-8.386436E-1,-3.0099916E-1,-3.2478116E-2,-2.916694E-1,7.0810676E-1,-8.4523267E-1,-2.997009E-1,2.7396562E-2,6.6403955E-1,2.382337E0,-8.8698804E-1,-5.177083E-1,-2.842258E-1,-1.5964805E0,6.9322544E-1,-6.822115E-1,-4.3151483E-1,4.564398E-1,-1.9689299E0,-2.7607033E-1,-1.8715635E-1,7.206545E-1,-8.5297734E-1,7.586453E-1,-2.915266E0,2.4749221E-1,-1.3300444E0,7.739421E-1,-7.358792E-1,8.8270694E-1,-2.945082E-1,6.992351E-1,-2.2742449E-1,1.1381359E-1,2.7748087E-1,-2.1807502E-1,-2.870308E-1,-7.681096E-3,-2.6716596E-1,1.601746E-1,-2.814552E-1,2.2847429E-1,9.3133444E-1,1.5954104E-1,-3.0746263E-1,-1.3557531E-2,-3.2827103E-1,-1.1366908E-2,-3.0065912E-1,-7.245249E-1,-2.836665E-1,2.6288146E-1,-3.560866E-1,1.100088E-1,3.7624259E-3,1.8885198E-1,-1.1564253E-1,-7.922962E-1,1.7038044E-1,-2.9868272E-1,5.9940226E-2,-4.4947308E-1,-2.146873E-1,2.4463093E-1,1.803993E-1,-5.4254943E-1,-1.9151433E-1,2.3766153E-1,-4.429476E-1,-1.0527673E0,-8.0135775E-1,1.5402704E-1,-6.9896975E-3,2.676623E-1,-5.4684466E-1,1.7175823E-1,2.7568942E-1,1.6934474E-1],"categories":[],"categories_nodes":[],"categories_segments":[],"categories_sizes":[],"default_left":[0,0,0,0,0,0,0,0,0,0,0,0,0,0,0,0,0,0,0,0,0,0,0,0,0,0,0,0,0,0,0,0,0,0,0,0,0,0,0,0,0,0,0,0,0,0,0,0,0,0,0,0,0,0,0,0,0,0,0,0,0,0,0,0,0,0,0,0,0,0,0,0,0,0,0,0,0,0,0,0,0,0,0,0,0,0,0,0,0,0,0,0,0,0,0,0,0,0,0,0,0,0,0,0,0,0,0,0,0],"id":13,"left_children":[1,3,5,7,9,11,13,15,17,19,21,23,25,27,29,31,33,35,37,39,41,43,45,-1,47,49,51,53,55,57,59,61,-1,63,-1,65,67,-1,69,71,73,75,-1,77,79,81,83,-1,85,87,89,91,93,95,97,99,101,-1,103,105,107,-1,-1,-1,-1,-1,-1,-1,-1,-1,-1,-1,-1,-1,-1,-1,-1,-1,-1,-1,-1,-1,-1,-1,-1,-1,-1,-1,-1,-1,-1,-1,-1,-1,-1,-1,-1,-1,-1,-1,-1,-1,-1,-1,-1,-1,-1,-1,-1],"loss_changes":[1.051485E3,8.3306885E1,4.4042694E1,2.1046936E1,2.4644524E1,1.773521E1,2.4072296E1,5.7580566E-1,1.9636806E1,5.3930923E1,2.1576948E1,1.3748541E1,1.094722E1,3.4730194E1,1.3245331E1,7.531738E-2,4.140476E0,1.716019E1,1.19568405E1,1.2367756E1,1.0676899E0,3.4744965E1,1.2421075E1,0E0,5.311713E0,5.293658E0,1.1804968E1,9.994713E0,6.960479E1,5.1645844E1,8.026581E0,2.1218456E1,0E0,2.458662E0,0E0,7.228203E0,9.5993805E-1,0E0,7.620103E0,7.4244213E0,4.9561806E0,1.002449E0,0E0,1.4638382E1,1.1333504E1,7.645955E0,5.372686E0,0E0,2.7354342E-1,2.451023E0,4.326541E0,1.5321688E1,4.4019566E0,6.8929944E0,6.3177643E0,1.9362793E0,3.4408257E1,0E0,9.5565367E-1,5.8414545E0,6.883423E0,0E0,0E0,0E0,0E0,0E0,0E0,0E0,0E0,0E0,0E0,0E0,0E0,0E0,0E0,0E0,0E0,0E0,0E0,0E0,0E0,0E0,0E0,0E0,0E0,0E0,0E0,0E0,0E0,0E0,0E0,0E0,0E0,0E0,0E0,0E0,0E0,0E0,0E0,0E0,0E0,0E0,0E0,0E0,0E0,0E0,0E0,0E0,0E0],"parents":[2147483647,0,0,1,1,2,2,3,3,4,4,5,5,6,6,7,7,8,8,9,9,10,10,11,11,12,12,13,13,14,14,15,15,16,16,17,17,18,18,19,19,20,20,21,21,22,22,24,24,25,25,26,26,27,27,28,28,29,29,30,30,31,31,33,33,35,35,36,36,38,38,39,39,40,40,41,41,43,43,44,44,45,45,46,46,48,48,49,49,50,50,51,51,52,52,53,53,54,54,55,55,56,56,58,58,59,59,60,60],"right_children":[2,4,6,8,10,12,14,16,18,20,22,24,26,28,30,32,34,36,38,40,42,44,46,-1,48,50,52,54,56,58,60,62,-1,64,-1,66,68,-1,70,72,74,76,-1,78,80,82,84,-1,86,88,90,92,94,96,98,100,102,-1,104,106,108,-1,-1,-1,-1,-1,-1,-1,-1,-1,-1,-1,-1,-1,-1,-1,-1,-1,-1,-1,-1,-1,-1,-1,-1,-1,-1,-1,-1,-1,-1,-1,-1,-1,-1,-1,-1,-1,-1,-1,-1,-1,-1,-1,-1,-1,-1,-1,-1],"split_conditions":[1.3900901E-1,5.649056E-4,5.711168E0,4.5980652E2,1.0027972E0,6.0043785E1,2.159034E-1,4.3420087E2,4.697595E2,2.9773636E0,4.9136776E1,2.3640008E0,1.4033735E-1,3.2951481E0,3.2504448E-1,1.2019997E0,1.1026239E0,8.173964E-1,5.2454334E-1,9.563233E-1,1.7803222E-2,9.335093E-1,1.4921728E0,-1.0289351E0,5.2665806E0,1.5254352E0,4.0929276E2,4.0005764E1,3.077182E2,9.941311E0,6.740713E-1,1.1904697E0,-3.0099916E-1,2.852488E0,-2.916694E-1,7.4400824E-1,1.318382E1,-2.997009E-1,2.9965627E0,3.077182E2,2.7838198E-3,1.826806E0,-5.177083E-1,5.0350466E0,1.7803222E-2,6.5006386E1,5.1514215E2,-4.3151483E-1,3.1308636E-1,3.1272298E-1,7.0869107E0,1E1,4.931904E0,1.1247903E0,1.3858484E2,5.004698E-1,1.7074275E0,-1.3300444E0,5.7682073E-1,2.601939E0,7.5630016E0,-2.945082E-1,6.992351E-1,-2.2742449E-1,1.1381359E-1,2.7748087E-1,-2.1807502E-1,-2.870308E-1,-7.681096E-3,-2.6716596E-1,1.601746E-1,-2.814552E-1,2.2847429E-1,9.3133444E-1,1.5954104E-1,-3.0746263E-1,-1.3557531E-2,-3.2827103E-1,-1.1366908E-2,-3.0065912E-1,-7.245249E-1,-2.836665E-1,2.6288146E-1,-3.560866E-1,1.100088E-1,3.7624259E-3,1.8885198E-1,-1.1564253E-1,-7.922962E-1,1.7038044E-1,-2.9868272E-1,5.9940226E-2,-4.4947308E-1,-2.146873E-1,2.4463093E-1,1.803993E-1,-5.4254943E-1,-1.9151433E-1,2.3766153E-1,-4.429476E-1,-1.0527673E0,-8.0135775E-1,1.5402704E-1,-6.9896975E-3,2.676623E-1,-5.4684466E-1,1.7175823E-1,2.7568942E-1,1.6934474E-1],"split_indices":[16,16,13,4,0,15,8,4,4,1,2,0,8,2,0,2,9,0,8,0,16,6,9,0,13,5,4,15,4,13,2,2,0,0,0,12,13,0,0,4,16,9,0,13,16,15,4,0,7,16,3,10,13,5,4,16,0,0,7,0,2,0,0,0,0,0,0,0,0,0,0,0,0,0,0,0,0,0,0,0,0,0,0,0,0,0,0,0,0,0,0,0,0,0,0,0,0,0,0,0,0,0,0,0,0,0,0,0,0],"split_type":[0,0,0,0,0,0,0,0,0,0,0,0,0,0,0,0,0,0,0,0,0,0,0,0,0,0,0,0,0,0,0,0,0,0,0,0,0,0,0,0,0,0,0,0,0,0,0,0,0,0,0,0,0,0,0,0,0,0,0,0,0,0,0,0,0,0,0,0,0,0,0,0,0,0,0,0,0,0,0,0,0,0,0,0,0,0,0,0,0,0,0,0,0,0,0,0,0,0,0,0,0,0,0,0,0,0,0,0,0],"sum_hessian":[1.8919645E3,9.948049E2,8.971596E2,8.052044E2,1.8960046E2,6.893377E1,8.282258E2,7.088708E2,9.6333595E1,5.9705334E1,1.2989514E2,5.8213124E0,6.3112457E1,1.7503726E2,6.531886E2,6.840989E2,2.4771881E1,2.9837805E1,6.64958E1,4.587877E1,1.3826567E1,9.9842445E1,3.0052692E1,1.574778E0,4.246535E0,7.4530725E0,5.5659386E1,1.26144485E2,4.889277E1,1.0275727E1,6.4291284E2,4.0753113E1,6.433458E2,6.2648516E0,1.8507029E1,2.0069376E1,9.76843E0,5.212965E1,1.4366144E1,4.193438E1,3.9443872E0,8.035385E0,5.791182E0,7.257029E1,2.7272152E1,2.1726742E1,8.325952E0,1.5831193E0,2.6634152E0,2.2598648E0,5.1932077E0,2.8610323E1,2.7049063E1,3.177747E0,1.2296674E2,7.3288674E0,4.15639E1,1.3605237E0,8.915204E0,2.3736439E0,6.4053925E2,3.965363E1,1.0994827E0,1.9640216E0,4.3008304E0,1.7743778E1,2.3255973E0,8.451073E0,1.3173572E0,4.8387785E0,9.527366E0,1.9118497E0,4.002253E1,2.3498416E0,1.5945457E0,6.7175546E0,1.3178304E0,1.6120443E1,5.644985E1,1.7089735E1,1.0182415E1,1.7644295E0,1.9962313E1,5.532197E0,2.7937543E0,1.0479635E0,1.6154517E0,1.14222E0,1.1176448E0,2.486862E0,2.7063456E0,2.274494E1,5.8653836E0,1.2690028E0,2.578006E1,1.4069848E0,1.7707622E0,2.4618657E0,1.20504875E2,3.1600277E0,4.1688395E0,2.715517E0,3.884838E1,1.2554001E0,7.659804E0,1.0818002E0,1.2918437E0,5.7332776E2,6.721148E1],"tree_param":{"num_deleted":"0","num_feature":"17","num_nodes":"109","size_leaf_vector":"1"}},{"base_weights":[-7.669931E-2,-7.815242E-1,6.334385E-1,-9.387819E-1,-2.6496184E-1,3.2678658E-1,8.473225E-1,-2.979218E-1,-4.7441363E-1,-1.0203269E0,-4.6332765E-2,-1.7483848E0,3.9350602E-1,8.642254E-1,-3.4413028E-1,-3.2782263E-1,-1.3728614E-1,-1.098854E-2,-3.143799E-1,9.424341E-1,-3.0927145E-1,-3.152849E-1,-7.0477617E-1,1.815281E-1,7.285043E-1,6.118793E-1,9.272983E-1,6.416902E-1,-6.3814914E-1,1.4320014E-1,-4.14529E-1,1.0170662E0,-1.5613467E-1,4.037439E-1,-7.4300224E-1,-5.4525083E-1,4.0389827E-1,-3.4365246E-1,8.21061E-1,-5.1081514E0,8.025402E-1,9.333902E-1,-1.3373765E-1,1.5577062E-2,2.3134221E-1,1.2150412E-1,-3.2441244E-1,6.881456E-2,3.1146705E-1,2.0525502E-1,-2.4150993E-1,-3.7409186E-1,-7.2754405E-2,6.65604E-2,-7.170037E-1,-9.606427E-2,1.8215391E-1,2.0224497E-1,-1.0599198E0,-1.4705113E-1,2.609228E-1,-2.7629593E-1,-2.0213337E0,2.6277566E-1,-6.4871335E-1,5.2154176E-2,2.8402525E-1],"categories":[],"categories_nodes":[],"categories_segments":[],"categories_sizes":[],"default_left":[0,0,0,0,0,0,0,0,0,0,0,0,0,0,0,0,0,0,0,0,0,0,0,0,0,0,0,0,0,0,0,0,0,0,0,0,0,0,0,0,0,0,0,0,0,0,0,0,0,0,0,0,0,0,0,0,0,0,0,0,0,0,0,0,0,0,0],"id":14,"left_children":[1,3,5,7,9,11,13,-1,15,17,19,21,23,25,27,-1,29,-1,-1,31,33,-1,-1,35,37,39,41,43,-1,45,-1,47,-1,49,51,53,55,57,59,61,63,65,-1,-1,-1,-1,-1,-1,-1,-1,-1,-1,-1,-1,-1,-1,-1,-1,-1,-1,-1,-1,-1,-1,-1,-1,-1],"loss_changes":[7.4530164E2,6.045453E1,4.8375366E1,1.3961578E1,2.8983986E1,4.3113464E1,9.085358E0,0E0,1.2740643E1,1.0318985E0,3.6008423E1,1.6080341E0,2.100763E1,6.285248E0,1.3351469E1,0E0,1.45662E1,0E0,0E0,3.7070599E0,3.409398E1,0E0,0E0,2.9901545E1,1.1697968E1,1.0119893E2,3.281128E0,3.538692E-1,0E0,1.1498403E1,0E0,2.29002E-1,0E0,1.4781092E1,1.6924011E1,6.202293E1,2.0979263E1,3.434608E1,7.204796E0,1.4318031E1,2.082769E1,3.2990723E0,0E0,0E0,0E0,0E0,0E0,0E0,0E0,0E0,0E0,0E0,0E0,0E0,0E0,0E0,0E0,0E0,0E0,0E0,0E0,0E0,0E0,0E0,0E0,0E0,0E0],"parents":[2147483647,0,0,1,1,2,2,3,3,4,4,5,5,6,6,8,8,9,9,10,10,11,11,12,12,13,13,14,14,16,16,19,19,20,20,23,23,24,24,25,25,26,26,27,27,29,29,31,31,33,33,34,34,35,35,36,36,37,37,38,38,39,39,40,40,41,41],"right_children":[2,4,6,8,10,12,14,-1,16,18,20,22,24,26,28,-1,30,-1,-1,32,34,-1,-1,36,38,40,42,44,-1,46,-1,48,-1,50,52,54,56,58,60,62,64,66,-1,-1,-1,-1,-1,-1,-1,-1,-1,-1,-1,-1,-1,-1,-1,-1,-1,-1,-1,-1,-1,-1,-1,-1,-1],"split_conditions":[8.778624E-2,4.2456497E2,9.7224325E-1,8.960039E-4,6.555865E1,1.7285318E2,5.706752E1,-2.979218E-1,2.7989683E-1,8.2158583E-1,6.818174E1,7.864603E-1,4.6215265E2,1.3280667E0,1.5326134E0,-3.2782263E-1,3.4690675E-1,-1.098854E-2,-3.143799E-1,1.5603137E0,1E0,-3.152849E-1,-7.0477617E-1,1.4862034E0,6.2630245E1,6.138698E1,1.2966587E1,1.9511397E-1,-6.3814914E-1,7.2446632E0,-4.14529E-1,6.6813034E1,-1.5613467E-1,3.6926808E0,8.470186E0,3E0,1.023711E0,2.9310977E0,2.1360835E-1,4.2905542E-1,1.1E1,3.8068165E1,-1.3373765E-1,1.5577062E-2,2.3134221E-1,1.2150412E-1,-3.2441244E-1,6.881456E-2,3.1146705E-1,2.0525502E-1,-2.4150993E-1,-3.7409186E-1,-7.2754405E-2,6.65604E-2,-7.170037E-1,-9.606427E-2,1.8215391E-1,2.0224497E-1,-1.0599198E0,-1.4705113E-1,2.609228E-1,-2.7629593E-1,-2.0213337E0,2.6277566E-1,-6.4871335E-1,5.2154176E-2,2.8402525E-1],"split_indices":[16,4,16,16,15,4,2,0,7,2,15,16,4,0,9,0,8,0,0,5,1,0,0,0,15,15,3,8,0,13,0,15,0,0,2,1,1,1,7,12,10,15,0,0,0,0,0,0,0,0,0,0,0,0,0,0,0,0,0,0,0,0,0,0,0,0,0],"split_type":[0,0,0,0,0,0,0,0,0,0,0,0,0,0,0,0,0,0,0,0,0,0,0,0,0,0,0,0,0,0,0,0,0,0,0,0,0,0,0,0,0,0,0,0,0,0,0,0,0,0,0,0,0,0,0,0,0,0,0,0,0,0,0,0,0,0,0],"sum_hessian":[1.4870571E3,7.462699E2,7.407872E2,5.714771E2,1.7479283E2,3.0542212E2,4.3536505E2,5.1063818E2,6.0838917E1,3.8412037E1,1.363808E2,8.728704E0,2.9669342E2,4.295458E2,5.819219E0,2.0675844E1,4.016307E1,1.112074E0,3.729996E1,2.8105886E1,1.0827491E2,5.3120275E0,3.4166777E0,1.8265567E2,1.1403774E2,8.803417E1,3.4151166E2,4.159557E0,1.6596622E0,3.349805E1,6.665022E0,2.7031563E1,1.0743228E0,4.0978683E1,6.729623E1,4.2453068E1,1.402026E2,8.846694E0,1.0519105E2,2.007749E0,8.602642E1,3.40322E2,1.1896565E0,1.0008532E0,3.1587038E0,2.8149057E1,5.3489933E0,1.016825E0,2.6014738E1,3.361411E1,7.364575E0,3.2788265E1,3.450796E1,3.0605797E1,1.1847271E1,3.0605827E1,1.0959678E2,7.3043623E0,1.5423317E0,3.4409404E0,1.0175011E2,1.0009806E0,1.0067685E0,8.463633E1,1.3900902E0,6.125068E0,3.3419693E2],"tree_param":{"num_deleted":"0","num_feature":"17","num_nodes":"67","size_leaf_vector":"1"}},{"base_weights":[-8.217175E-2,-9.017208E-1,4.5998442E-1,-9.906363E-1,-4.9051774E-1,1.21419035E-1,7.690384E-1,-2.9794386E-1,-4.476489E-1,-2.5772047E-1,-2.9433656E-1,-1.1904884E-1,4.7548392E-1,8.2258344E-1,1.3613944E-1,-1.8543975E-1,-7.292152E-4,-2.843144E-1,-1.7426446E-2,-5.1373918E-2,-1.9588815E0,5.709547E-1,-5.1207894E-1,-2.9502144E-1,8.5048985E-1,-1.3328147E0,4.6711043E-1,-3.1149495E-1,2.3666391E-1,-2.071051E0,1.260687E-3,-3.4717047E-1,-9.155054E-1,-1.2023466E0,6.423821E-1,-1.7288412E0,4.8409176E-1,-1.1022537E0,7.413493E-1,3.0993235E-1,8.8970536E-1,-1.8076118E0,1.0887474E-1,6.3528365E-1,-3.1619343E-1,1.2496207E-1,-2.9117414E-1,-2.1992877E-1,-7.777545E-1,-4.0068778E-1,2.295282E-2,-5.062005E-1,-4.71044E-2,9.366314E-2,2.6237833E-1,-6.78287E-1,-4.502635E-2,-1.7989759E-1,2.2594309E-1,1.6463453E-2,2.5719842E-1,1.4261782E-1,-4.762136E-1,8.6159155E-2,2.7632886E-1,-7.0872533E-1,-9.129736E-2,2.4195771E-1,-3.2403067E-1],"categories":[],"categories_nodes":[],"categories_segments":[],"categories_sizes":[],"default_left":[0,0,0,0,0,0,0,0,0,0,0,0,0,0,0,0,0,0,0,0,0,0,0,0,0,0,0,0,0,0,0,0,0,0,0,0,0,0,0,0,0,0,0,0,0,0,0,0,0,0,0,0,0,0,0,0,0,0,0,0,0,0,0,0,0,0,0,0,0],"id":15,"left_children":[1,3,5,7,9,11,13,-1,15,17,-1,19,21,23,25,-1,-1,-1,27,29,31,33,35,37,39,41,43,-1,45,47,49,-1,-1,51,53,55,57,-1,59,61,63,65,-1,67,-1,-1,-1,-1,-1,-1,-1,-1,-1,-1,-1,-1,-1,-1,-1,-1,-1,-1,-1,-1,-1,-1,-1,-1,-1],"loss_changes":[5.258892E2,1.6742218E1,7.445271E1,8.2092285E-2,9.541315E0,2.9104631E1,1.250354E1,0E0,2.7164245E-1,9.851056E0,0E0,2.5297157E1,1.3321726E1,1.0949432E1,1.5322896E1,0E0,0E0,0E0,1.1960293E1,2.1026651E1,2.7847004E0,1.6793167E1,1.6241669E1,3.458967E1,6.8241577E0,5.3413563E0,7.171386E0,0E0,8.433551E0,1.6045151E0,1.9592978E1,0E0,0E0,2.3944807E0,9.09898E0,4.6506214E0,2.7170238E0,0E0,5.736065E-1,8.348274E0,5.631485E0,3.2123632E0,0E0,7.7772474E0,0E0,0E0,0E0,0E0,0E0,0E0,0E0,0E0,0E0,0E0,0E0,0E0,0E0,0E0,0E0,0E0,0E0,0E0,0E0,0E0,0E0,0E0,0E0,0E0,0E0],"parents":[2147483647,0,0,1,1,2,2,3,3,4,4,5,5,6,6,8,8,9,9,11,11,12,12,13,13,14,14,18,18,19,19,20,20,21,21,22,22,23,23,24,24,25,25,26,26,28,28,29,29,30,30,33,33,34,34,35,35,36,36,38,38,39,39,40,40,41,41,43,43],"right_children":[2,4,6,8,10,12,14,-1,16,18,-1,20,22,24,26,-1,-1,-1,28,30,32,34,36,38,40,42,44,-1,46,48,50,-1,-1,52,54,56,58,-1,60,62,64,66,-1,68,-1,-1,-1,-1,-1,-1,-1,-1,-1,-1,-1,-1,-1,-1,-1,-1,-1,-1,-1,-1,-1,-1,-1,-1,-1],"split_conditions":[1.1806677E-3,4.3420087E2,9.284102E-1,8.960039E-4,3.2377338E0,4.5746957E2,7.5630016E0,-2.9794386E-1,7.1029943E-1,4.0999913E0,-2.9433656E-1,1.3E1,5.336655E2,3.5752416E-1,1.0492849E1,-1.8543975E-1,-7.292152E-4,-2.843144E-1,7.2525024E-1,1.7861621E0,5.004698E-1,2.1422212E-1,3.4157692E1,1.0166755E0,5.753569E0,1.471915E2,9.999999E-1,-3.1149495E-1,1.1476543E0,3.124004E2,4.0587914E1,-3.4717047E-1,-9.155054E-1,4.343464E1,1.3900901E-1,3.2350266E-1,1.7803222E-2,-1.1022537E0,7.2446632E0,1.9878742E0,2.4409445E-1,1.1044829E1,1.0887474E-1,1.8057283E0,-3.1619343E-1,1.2496207E-1,-2.9117414E-1,-2.1992877E-1,-7.777545E-1,-4.0068778E-1,2.295282E-2,-5.062005E-1,-4.71044E-2,9.366314E-2,2.6237833E-1,-6.78287E-1,-4.502635E-2,-1.7989759E-1,2.2594309E-1,1.6463453E-2,2.5719842E-1,1.4261782E-1,-4.762136E-1,8.6159155E-2,2.7632886E-1,-7.0872533E-1,-9.129736E-2,2.4195771E-1,-3.2403067E-1],"split_indices":[16,4,16,16,0,4,2,0,12,10,0,10,4,0,13,0,0,0,6,3,16,7,2,5,13,2,16,0,6,4,15,0,0,2,16,8,16,0,13,9,7,3,0,9,0,0,0,0,0,0,0,0,0,0,0,0,0,0,0,0,0,0,0,0,0,0,0,0,0],"split_type":[0,0,0,0,0,0,0,0,0,0,0,0,0,0,0,0,0,0,0,0,0,0,0,0,0,0,0,0,0,0,0,0,0,0,0,0,0,0,0,0,0,0,0,0,0,0,0,0,0,0,0,0,0,0,0,0,0,0,0,0,0,0,0,0,0,0,0,0,0],"sum_hessian":[1.1816392E3,4.7019968E2,7.1143945E2,3.8544485E2,8.475482E1,3.4017462E2,3.7126486E2,3.8284622E2,2.598636E0,5.8514385E1,2.6240433E1,2.0298108E2,1.3719353E2,3.4202853E2,2.923631E1,1.5982506E0,1.0003854E0,1.4353871E1,4.4160515E1,1.9677113E2,6.209947E0,1.2548442E2,1.1709113E1,8.099164E0,3.3392938E2,4.8193817E0,2.4416927E1,8.185643E0,3.5974873E1,4.0237937E0,1.9274734E2,4.7698746E0,1.4400727E0,4.2456684E0,1.21238754E2,4.939872E0,6.769241E0,1.303565E0,6.7955985E0,2.3188995E1,3.107404E2,3.713609E0,1.1057725E0,2.2510492E1,1.9064351E0,3.1879826E1,4.095046E0,1.8031565E0,2.2206373E0,9.378429E0,1.8336891E2,2.4806113E0,1.7650571E0,5.102841E1,7.021034E1,3.3714247E0,1.5684471E0,1.1019129E0,5.667328E0,1.1950926E0,5.6005063E0,2.2018269E1,1.1707268E0,1.5890534E1,2.9484985E2,2.2950811E0,1.4185278E0,2.0949038E1,1.5614535E0],"tree_param":{"num_deleted":"0","num_feature":"17","num_nodes":"69","size_leaf_vector":"1"}},{"base_weights":[-8.611222E-2,-8.6701864E-1,3.7218863E-1,-9.8162234E-1,-4.2207572E-1,5.8359023E-2,7.07366E-1,-2.9549268E-1,-3.8767177E-1,-1.9982465E-1,-3.000324E-1,-1.2196879E0,1.11060105E-1,7.321498E-1,-7.6533824E-1,-6.3019776E-4,-1.674165E-1,-9.666437E-1,5.8745872E-2,-1.2917923E0,-1.15878254E-1,-2.1289511E-1,2.966694E-1,3.8765284E-1,8.3942664E-1,2.0836627E-1,-5.999899E-1,-3.0905944E-1,-2.6848584E-2,-2.6669106E-1,2.7564383E-1,-2.9717067E-1,-5.990299E-1,-1.2748458E0,-5.9007794E-2,3.7018743E-1,-1.2938732E0,-2.836367E0,6.2033355E-1,-6.94279E-1,8.6422855E-1,1.3934693E-1,-2.4944656E-1,-2.4329974E-1,-5.1474303E-1,4.134256E-2,-2.8257498E-1,8.403054E-3,2.313026E-1,-2.4734253E-1,-7.4589044E-1,-2.8647593E-1,-1.325287E0,2.143849E-1,-7.423172E-1,-5.429745E-1,1.5373337E-1,-9.96627E-2,2.6485804E-1],"categories":[],"categories_nodes":[],"categories_segments":[],"categories_sizes":[],"default_left":[0,0,0,0,0,0,0,0,0,0,0,0,0,0,0,0,0,0,0,0,0,0,0,0,0,0,0,0,0,0,0,0,0,0,0,0,0,0,0,0,0,0,0,0,0,0,0,0,0,0,0,0,0,0,0,0,0,0,0],"id":16,"left_children":[1,3,5,7,9,11,13,-1,15,17,-1,19,21,23,25,-1,-1,27,29,31,-1,33,35,37,39,-1,-1,-1,-1,-1,41,-1,-1,43,45,47,49,51,53,55,57,-1,-1,-1,-1,-1,-1,-1,-1,-1,-1,-1,-1,-1,-1,-1,-1,-1,-1],"loss_changes":[3.4814798E2,1.792923E1,6.4454445E1,1.8637085E-1,9.490932E0,2.1537062E1,1.1378616E1,0E0,2.1238014E-1,1.1107538E1,0E0,2.6223946E-1,1.8467407E1,1.0466049E1,1.1112043E1,0E0,0E0,6.944771E-1,9.00639E0,4.0719795E-1,0E0,1.8239613E1,2.3281857E1,5.5168674E1,9.037323E0,0E0,0E0,0E0,0E0,0E0,7.7975235E0,0E0,0E0,1.4999084E0,1.7321901E1,2.5649033E1,2.896863E0,1.0573162E1,2.138293E1,6.4260793E0,5.1689453E0,0E0,0E0,0E0,0E0,0E0,0E0,0E0,0E0,0E0,0E0,0E0,0E0,0E0,0E0,0E0,0E0,0E0,0E0],"parents":[2147483647,0,0,1,1,2,2,3,3,4,4,5,5,6,6,8,8,9,9,11,11,12,12,13,13,14,14,17,17,18,18,19,19,21,21,22,22,23,23,24,24,30,30,33,33,34,34,35,35,36,36,37,37,38,38,39,39,40,40],"right_children":[2,4,6,8,10,12,14,-1,16,18,-1,20,22,24,26,-1,-1,28,30,32,-1,34,36,38,40,-1,-1,-1,-1,-1,42,-1,-1,44,46,48,50,52,54,56,58,-1,-1,-1,-1,-1,-1,-1,-1,-1,-1,-1,-1,-1,-1,-1,-1,-1,-1],"split_conditions":[1.1806677E-3,4.2456497E2,9.284102E-1,8.960039E-4,1.1524395E0,1.7954811E2,1.175758E1,-2.9549268E-1,1.6824876E0,7.2525024E-1,-3.000324E-1,1.5733741E1,2.0338006E-1,1.4201674E0,2.9001467E0,-6.3019776E-4,-1.674165E-1,1.5E1,6.738731E1,8.2210475E-1,-1.15878254E-1,5.2304873E0,8.143978E0,6.138698E1,1.2421928E-1,2.0836627E-1,-5.999899E-1,-3.0905944E-1,-2.6848584E-2,-2.6669106E-1,3.2665753E0,-2.9717067E-1,-5.990299E-1,8.759598E-1,9.380559E0,2.4441392E0,4.8736377E0,4.0587914E1,1.1693263E1,2.3898194E0,1.9852026E-1,1.3934693E-1,-2.4944656E-1,-2.4329974E-1,-5.1474303E-1,4.134256E-2,-2.8257498E-1,8.403054E-3,2.313026E-1,-2.4734253E-1,-7.4589044E-1,-2.8647593E-1,-1.325287E0,2.143849E-1,-7.423172E-1,-5.429745E-1,1.5373337E-1,-9.96627E-2,2.6485804E-1],"split_indices":[16,4,16,16,6,4,0,0,2,6,0,0,8,0,3,0,0,10,15,16,0,13,0,15,8,0,0,0,0,0,0,0,0,6,13,0,2,15,10,9,7,0,0,0,0,0,0,0,0,0,0,0,0,0,0,0,0,0,0],"split_type":[0,0,0,0,0,0,0,0,0,0,0,0,0,0,0,0,0,0,0,0,0,0,0,0,0,0,0,0,0,0,0,0,0,0,0,0,0,0,0,0,0,0,0,0,0,0,0,0,0,0,0,0,0,0,0,0,0,0,0],"sum_hessian":[9.7087744E2,3.5873355E2,6.1214386E2,2.8430032E2,7.443324E1,3.167459E2,2.9539798E2,2.8204965E2,2.2506726E0,5.473396E1,1.9699286E1,1.166702E1,3.050789E2,2.910036E2,4.394379E0,1.0000114E0,1.2506611E0,1.3111617E1,4.162234E1,1.02318325E1,1.435187E0,1.1107169E2,1.9400719E2,7.019637E1,2.2080722E2,2.2139363E0,2.1804426E0,1.2063092E1,1.0485255E0,7.1746764E0,3.4447666E1,8.853848E0,1.3779844E0,1.3136261E1,9.793543E1,1.8616933E2,7.837857E0,3.9718964E0,6.622448E1,3.0843387E0,2.1772287E2,2.9923935E1,4.5237317E0,7.7856975E0,5.3505635E0,8.0773476E1,1.7161953E1,1.01008896E2,8.516044E1,6.8376484E0,1.0002081E0,2.5462077E0,1.4256889E0,6.50129E1,1.2115732E0,1.3429242E0,1.7414144E0,3.0804288E0,2.1464244E2],"tree_param":{"num_deleted":"0","num_feature":"17","num_nodes":"59","size_leaf_vector":"1"}},{"base_weights":[-7.455439E-2,-8.477666E-1,3.2923982E-1,-9.645855E-1,-4.2322698E-1,1.0271794E-1,7.727291E-1,-4.8681617E-1,-2.9895887E-1,-2.4032079E-1,-2.9518047E-1,-1.6479478E0,1.5967253E-1,8.3439803E-1,5.1953882E-2,-2.7986962E-1,8.76583E-1,-9.7090477E-1,-2.8050326E-2,-3.1889838E-1,-8.5677236E-1,-4.9614555E-1,2.593447E-1,1.2702805E-1,8.755517E-1,4.713388E-1,-1.3575987E0,-2.6336214E-2,-3.175948E-1,-4.6025318E-1,3.0907786E-1,-1.8213828E0,1.4223327E-1,6.255096E-1,6.792087E-2,-8.967509E-1,2.6818457E-1,-1.2865826E-1,8.9057815E-1,6.8308616E-1,-2.6705956E-1,-4.4782214E-2,-6.088222E-1,-2.403564E-1,1.1380279E-1,2.1271415E-1,-9.2307545E-2,-6.0692024E-1,-8.3339915E-2,-4.3063614E-1,1.24452874E-1,2.323137E-1,-2.3477294E-2,-6.0829718E-2,1.3646437E-1,-1.6946409E-2,2.72403E-1,2.4258555E-1,-2.1570893E-2],"categories":[],"categories_nodes":[],"categories_segments":[],"categories_sizes":[],"default_left":[0,0,0,0,0,0,0,0,0,0,0,0,0,0,0,0,0,0,0,0,0,0,0,0,0,0,0,0,0,0,0,0,0,0,0,0,0,0,0,0,0,0,0,0,0,0,0,0,0,0,0,0,0,0,0,0,0,0,0],"id":17,"left_children":[1,3,5,7,9,11,13,15,-1,17,-1,19,21,23,25,-1,-1,27,29,-1,-1,31,33,35,37,39,41,-1,-1,43,45,47,49,51,53,-1,-1,-1,55,57,-1,-1,-1,-1,-1,-1,-1,-1,-1,-1,-1,-1,-1,-1,-1,-1,-1,-1,-1],"loss_changes":[2.5217819E2,1.3332779E1,5.3238228E1,2.819046E0,6.0779743E0,3.540573E1,7.925598E0,2.633025E1,0E0,7.377729E0,0E0,4.87348E0,2.2501125E1,4.694519E0,9.623267E0,0E0,0E0,7.3776054E-1,5.683322E0,0E0,0E0,3.875036E1,2.082848E1,2.7158857E1,3.4364853E0,4.198653E0,2.7349768E0,0E0,0E0,5.189099E0,5.6360435E0,4.065399E0,1.4200983E1,1.0757748E1,2.0691427E1,0E0,0E0,0E0,2.6000977E0,1.1332593E0,0E0,0E0,0E0,0E0,0E0,0E0,0E0,0E0,0E0,0E0,0E0,0E0,0E0,0E0,0E0,0E0,0E0,0E0,0E0],"parents":[2147483647,0,0,1,1,2,2,3,3,4,4,5,5,6,6,7,7,9,9,11,11,12,12,13,13,14,14,17,17,18,18,21,21,22,22,23,23,24,24,25,25,26,26,29,29,30,30,31,31,32,32,33,33,34,34,38,38,39,39],"right_children":[2,4,6,8,10,12,14,16,-1,18,-1,20,22,24,26,-1,-1,28,30,-1,-1,32,34,36,38,40,42,-1,-1,44,46,48,50,52,54,-1,-1,-1,56,58,-1,-1,-1,-1,-1,-1,-1,-1,-1,-1,-1,-1,-1,-1,-1,-1,-1,-1,-1],"split_conditions":[1.1806677E-3,4.3584894E2,9.950925E-1,1.2019997E0,1.1524395E0,1.6950977E2,7.5630016E0,1.1904697E0,-2.9895887E-1,7.2525024E-1,-2.9518047E-1,9.389364E-1,6.1102173E1,5.360373E-1,4E0,-2.7986962E-1,8.76583E-1,2.3247194E-1,1.8588815E-5,-3.1889838E-1,-8.5677236E-1,2.3640008E0,9.890206E1,9.655351E-1,5.0013084E0,4.8342664E2,9.9949867E-1,-2.6336214E-2,-3.175948E-1,5.2454334E-1,8.6141074E-1,1.1277854E1,3.274568E2,1.4483596E0,6.631955E-1,-8.967509E-1,2.6818457E-1,-1.2865826E-1,1.1882779E-1,1E0,-2.6705956E-1,-4.4782214E-2,-6.088222E-1,-2.403564E-1,1.1380279E-1,2.1271415E-1,-9.2307545E-2,-6.0692024E-1,-8.3339915E-2,-4.3063614E-1,1.24452874E-1,2.323137E-1,-2.3477294E-2,-6.0829718E-2,1.3646437E-1,-1.6946409E-2,2.72403E-1,2.4258555E-1,-2.1570893E-2],"split_indices":[16,4,16,2,6,4,2,2,0,6,0,16,15,0,10,0,0,12,16,0,0,0,15,6,13,4,16,0,0,8,0,10,4,9,16,0,0,0,8,16,0,0,0,0,0,0,0,0,0,0,0,0,0,0,0,0,0,0,0],"split_type":[0,0,0,0,0,0,0,0,0,0,0,0,0,0,0,0,0,0,0,0,0,0,0,0,0,0,0,0,0,0,0,0,0,0,0,0,0,0,0,0,0,0,0,0,0,0,0,0,0,0,0,0,0,0,0,0,0,0,0],"sum_hessian":[8.0580347E2,2.7606885E2,5.297346E2,2.1549883E2,6.0570038E1,3.514536E2,1.7828102E2,1.45231905E1,2.0097563E2,4.674888E1,1.3821157E1,1.0193458E1,3.4126016E2,1.6408446E2,1.419657E1,1.34848385E1,1.0383513E0,9.720241E0,3.702864E1,8.134383E0,2.0590744E0,4.4497814E1,2.9676233E2,9.246011E0,1.5483844E2,1.14542055E1,2.742365E0,1.0592961E0,8.660945E0,1.6066261E1,2.096238E1,1.3863942E1,3.0633871E1,1.0110192E2,1.9566042E2,1.2538135E0,7.992197E0,1.4497368E0,1.533887E2,1.0343823E1,1.1103816E0,1.4166162E0,1.3257487E0,1.1458892E1,4.607369E0,1.2625346E1,8.337032E0,1.1987079E1,1.8768629E0,3.8849142E0,2.6748957E1,8.336684E1,1.7735088E1,1.1540694E2,8.025348E1,2.7317727E0,1.5065694E2,8.808241E0,1.5355831E0],"tree_param":{"num_deleted":"0","num_feature":"17","num_nodes":"59","size_leaf_vector":"1"}},{"base_weights":[-7.482595E-2,-8.0370206E-1,2.587744E-1,-9.579338E-1,-3.2991195E-1,6.29598E-2,7.094971E-1,-5.496961E-1,-2.9638165E-1,-8.683138E-2,-8.239507E-1,-1.773061E0,1.1738166E-1,7.779364E-1,-6.4529157E-1,5.8897245E-1,-2.763897E-1,-2.8822017E-1,1.4354332E-1,1.1097967E-1,-2.8409216E-1,-2.833231E-1,-2.7297657E0,-2.2371937E-1,2.9672885E-1,-7.577953E-1,8.0839616E-1,-1.5629137E0,2.1298997E-1,-7.801418E-2,1.0338639E0,-1.1987416E0,-6.392949E-2,-1.0090472E0,-6.558365E-2,4.511633E-1,-2.587942E-1,1.6027357E-1,-5.2712977E-1,8.122301E-2,8.611224E-1,7.903722E-2,-8.896957E-1,4.1383408E-2,-2.688713E-1,5.338059E-2,3.5191008E-1,1.9655448E-1,-3.6240715E-1,-5.4235226E-1,2.3171303E-3,1.9824682E-1,2.900234E-2,7.873164E-2,-4.774051E-1,-6.7321527E-1,2.3248897E-1,2.719972E-1,3.7966996E-2],"categories":[],"categories_nodes":[],"categories_segments":[],"categories_sizes":[],"default_left":[0,0,0,0,0,0,0,0,0,0,0,0,0,0,0,0,0,0,0,0,0,0,0,0,0,0,0,0,0,0,0,0,0,0,0,0,0,0,0,0,0,0,0,0,0,0,0,0,0,0,0,0,0,0,0,0,0,0,0],"id":18,"left_children":[1,3,5,7,9,11,13,15,-1,17,19,21,23,25,27,-1,-1,-1,29,-1,-1,-1,31,33,35,37,39,41,-1,43,45,-1,-1,47,49,51,53,-1,-1,55,57,-1,-1,-1,-1,-1,-1,-1,-1,-1,-1,-1,-1,-1,-1,-1,-1,-1,-1],"loss_changes":[1.6505197E2,1.5256393E1,4.1069138E1,1.4198303E0,6.396657E0,3.2766674E1,1.35746E1,1.4159214E1,0E0,7.630586E0,2.9417696E0,4.9077854E0,1.9483778E1,6.9118423E0,